{"layers.0.weight": [[-0.005216540768742561, 0.05496330186724663, -0.09532099962234497, -0.07338439673185349, -0.023395683616399765, 0.007088055368512869, -0.02027277834713459, 0.09099855273962021, -0.0038125913124531507, 0.02088971622288227, -0.05034308880567551, -0.02386070229113102, -0.10855024307966232, -0.07344702631235123, -0.03377993777394295, 0.0015605204971507192, 0.056288354098796844, 0.04899167641997337, -0.0914962962269783, -0.05818478763103485, 0.035834066569805145, 0.06505552679300308, -0.029712215065956116, 0.0707244724035263, -0.01072676945477724, 0.010667438618838787, 0.11071766912937164, -0.14033573865890503, -0.07172501087188721, -0.03323753550648689, -0.01871630735695362, 0.05255730450153351, -0.06569426506757736, -0.015113148838281631, -0.09219210594892502, -0.10691777616739273, -0.06727901101112366, 0.06677927076816559, 0.03875182941555977, 0.07499021291732788, 2.045370309069556e-32, -0.04367193952202797, 0.004736896604299545, -0.11497609317302704, -0.11410745978355408, -0.06684239208698273, 0.055885929614305496, 0.06300681829452515, -0.011073075234889984, -0.012684126384556293, 0.06295647472143173, 0.0846753865480423, 0.02718527987599373, 0.013790173456072807, 0.0638519674539566, -0.0632736086845398, 0.01701800711452961, -0.08778495341539383, -0.08515897393226624, -0.07818248122930527, 0.04045512527227402, 0.05003037303686142, -0.07860642671585083, 0.03855898976325989, 0.07031523436307907, -0.01740155555307865, 0.017911940813064575, 0.04140903800725937, 0.07833510637283325, 0.09977326542139053, -0.10292097181081772, -0.04955238848924637, 0.05754609405994415, 0.07817567139863968, 0.10048628598451614, 0.1056336909532547, 0.04387734457850456, -0.0946153849363327, 0.010880032554268837, -0.0826772078871727, -0.08957748860120773], [0.0893135592341423, 0.10812912881374359, -0.11264846473932266, 0.01586676575243473, -0.029763732105493546, -0.018095923587679863, -0.06181425601243973, 0.00964838545769453, -0.04795540124177933, 0.016638631001114845, 0.03508114814758301, 0.07252467423677444, 0.0243055522441864, -0.14405487477779388, -0.10593874752521515, 0.03182205930352211, 0.03519333899021149, -0.09534584730863571, -0.05983072891831398, 0.09451074153184891, 0.0751160979270935, -0.05940397456288338, -0.027450677007436752, -0.11890667676925659, -0.007128661964088678, -0.06170535460114479, -0.06581857055425644, -0.0057006883434951305, 0.007166706956923008, -0.04056239128112793, 0.0787205919623375, -0.11988801509141922, 0.09107092767953873, 0.07819726318120956, -0.0858217105269432, -0.005610737018287182, 0.01704687438905239, 0.012923269532620907, 0.03548398241400719, 0.05180201679468155, 1.0297581040436758e-32, -0.002846675692126155, 0.0792054831981659, -0.09151122719049454, -0.07197537273168564, -0.052575983107089996, -0.05106618255376816, -0.03889395296573639, -0.12024029344320297, -0.046466559171676636, 0.036323122680187225, -0.08492780476808548, -0.010954775847494602, 0.059201598167419434, -0.023525558412075043, -0.004876073449850082, -0.024435842409729958, 0.029246659949421883, 0.04395785927772522, 0.09765783697366714, 0.08144546300172806, 0.10888852179050446, 0.004197993315756321, -0.11665871739387512, -0.05740132927894592, 0.07281160354614258, -0.019897544756531715, -0.05682143568992615, -0.08992800861597061, -0.14339685440063477, -0.06677384674549103, -0.023031672462821007, 0.08645300567150116, 0.060835737735033035, -0.10089893639087677, 0.07909023016691208, -0.07629772275686264, -0.05167687311768532, -0.024926716461777687, -0.012597908265888691, -0.017560558393597603], [-0.09612307697534561, -0.10537213832139969, -0.02808971330523491, 0.022567642852663994, -0.05997253581881523, 0.03594189137220383, -0.11451207101345062, -0.01115893293172121, 0.1133032739162445, -0.0489533357322216, 0.10413864254951477, 0.034607451409101486, -0.1028500497341156, 0.06417067348957062, -0.019592642784118652, -0.055543504655361176, 0.08799520134925842, -0.10984186828136444, 0.0098764942958951, -0.04590015113353729, 0.08338367938995361, 0.04676290974020958, 0.029396845027804375, 0.025637023150920868, -0.05800208821892738, -0.046515725553035736, -0.09343215078115463, 0.06533989310264587, 0.08120647072792053, 0.05398790165781975, -0.06743516027927399, -0.011137920431792736, -0.07876773178577423, -0.05983063206076622, -0.06223960965871811, 0.030763430520892143, -0.07536790519952774, -0.012631339021027088, 0.04167497158050537, 0.0599885955452919, 1.3782319826026564e-23, -0.08042305707931519, -0.07928427308797836, 0.06617310643196106, -0.06714218854904175, 0.08167213946580887, 0.03333958983421326, 7.315012680919608e-06, 0.017917921766638756, -0.06046506017446518, -0.002661964390426874, -0.029956044629216194, -0.01574118807911873, 0.003506836947053671, -0.08562912046909332, -0.0695156678557396, 0.07037828862667084, -0.08504541218280792, -0.004772900138050318, 0.0951976627111435, 0.03140208125114441, -0.0008982332074083388, -0.11311832815408707, 0.06311327964067459, -0.0837671235203743, -0.045528754591941833, -0.05803168937563896, -0.033531446009874344, -0.0022633220069110394, 0.09689516574144363, 0.015058184042572975, 0.0965455174446106, 0.05673758685588837, -0.0776863768696785, 0.03703771159052849, -0.08611633628606796, -0.039996154606342316, 0.03812388330698013, 0.010123432613909245, 0.08036842942237854, -0.07341569662094116], [0.008027367293834686, 0.04385280981659889, -0.11987988650798798, 0.04670718312263489, -0.07462412863969803, -8.597994747105986e-05, -0.03297051414847374, -0.05706819146871567, 0.0012219330528751016, 0.09050789475440979, -0.02875427156686783, -0.05506879836320877, -0.03609372675418854, -0.11865998059511185, 0.03771623969078064, -0.05606048181653023, -0.06383933871984482, -0.03951286897063255, 0.04828120023012161, 0.060030627995729446, 0.07484250515699387, 0.051848191767930984, -0.033644456416368484, -0.06408336013555527, 0.04020139202475548, 0.05971016362309456, 0.039578694850206375, -0.08196408301591873, -0.05596105009317398, -0.11461635679006577, 0.018319586291909218, -0.07187581807374954, -0.09395436197519302, 0.1300635188817978, -0.06867169588804245, -0.013667012564837933, 0.048962440341711044, -0.0026004521641880274, -0.07860848307609558, -0.09292871505022049, 2.9335362593844714e-24, -0.012030395679175854, 0.09776964038610458, -0.012251724489033222, 0.028343437239527702, -0.02892962098121643, -0.01896183006465435, -0.08533645421266556, 0.07310083508491516, 0.0251208133995533, -0.001190086593851447, -0.037532247602939606, -0.08567424863576889, 0.0781509056687355, -0.12261753529310226, 0.0419982485473156, -0.04004703834652901, -0.06892774254083633, 0.011667544022202492, -0.05792275816202164, 0.008464599028229713, 0.02796601876616478, -0.09154586493968964, 0.008096948266029358, 0.03450806066393852, 0.0127045763656497, -0.032520487904548645, -0.0956035777926445, -0.013674546033143997, 0.031599875539541245, -0.04866836965084076, 0.013905882835388184, 0.030142273753881454, -0.06083623692393303, -0.00828636810183525, 0.044403187930583954, 0.005182358436286449, -0.012009003199636936, 0.008550030179321766, -0.11665854603052139, 0.0043180519714951515], [0.07954684644937515, 0.10327352583408356, 0.07339207082986832, 0.02135118842124939, 0.05804843083024025, -0.026552189141511917, -0.08012703061103821, -0.07478847354650497, 0.11012691259384155, 0.06656786054372787, -0.08011942356824875, 0.05758991092443466, 0.08119431883096695, 0.12044151872396469, 0.11780433356761932, 0.09492602199316025, 0.016086960211396217, 0.008389774709939957, 0.09464409202337265, 0.07006271928548813, -0.04605599865317345, 0.09457574039697647, 0.056485190987586975, 0.0641769990324974, -0.06808166950941086, 0.054557520896196365, -0.040935128927230835, 0.07807961851358414, -0.007693570572882891, 0.06114303320646286, 0.0070023853331804276, 0.06863204389810562, -0.004376087803393602, 0.0708828940987587, -0.06326556950807571, -0.012857131659984589, -0.07883801311254501, -0.10237252712249756, -0.09607266634702682, 0.09823641180992126, -3.466578990069365e-26, 0.15136510133743286, 0.08817162364721298, -0.09077855199575424, -0.0605708472430706, 0.008150368928909302, -0.05532103031873703, 0.06620027124881744, -0.08924297988414764, -0.047676876187324524, -0.11782821267843246, -0.06203628331422806, 0.1058550477027893, 0.10858743637800217, 0.11152739077806473, 0.08871403336524963, 0.12786895036697388, -0.020892882719635963, 0.036713551729917526, 0.09578908234834671, 0.052310049533843994, 0.15026138722896576, 0.0459442175924778, 0.08116575330495834, -0.037840329110622406, 0.0669703260064125, 0.018386775627732277, 0.00112234300468117, -0.07466434687376022, -0.06434480100870132, -0.07636358588933945, 0.037508755922317505, 0.08889676630496979, -0.015899434685707092, -0.06793060153722763, 0.09718300402164459, 0.06787323951721191, 0.012282480485737324, -0.0611874982714653, 0.09240732342004776, 0.05716408044099808], [-0.10401193797588348, 0.1083453893661499, 0.10621637105941772, -0.039171963930130005, 0.06987583637237549, -0.06959422677755356, -0.01612875424325466, 0.07040905207395554, -0.011656691320240498, -0.08163808286190033, -0.05342525243759155, -0.01244199275970459, 0.016986068338155746, 0.013294018805027008, 0.08518017828464508, 0.024833451956510544, -0.07626192271709442, 0.011682308278977871, 0.058956798166036606, 0.053898293524980545, -0.11557251960039139, -0.058797068893909454, -0.10124088823795319, -0.05324582755565643, 0.01791551150381565, -0.061347369104623795, 0.05659376084804535, 0.091787189245224, 0.05294878035783768, -0.06561427563428879, 0.0030560761224478483, 0.04673702269792557, -0.057923246175050735, 0.05253179371356964, -0.0948391780257225, -0.11824000626802444, -0.11251357942819595, -0.015181283466517925, 0.0791221410036087, -0.10339276492595673, 9.17033384270639e-23, -0.08753742277622223, -0.0017090935725718737, -0.01331198401749134, -0.15124087035655975, 0.07409054040908813, 0.05286866053938866, 0.07304134964942932, 0.07341186702251434, -0.10555940121412277, 0.08024213463068008, -0.0012174959992989898, 0.03846127539873123, -0.11342888325452805, -0.02761060558259487, -0.13900190591812134, -0.05210491269826889, -0.013442113995552063, -0.10100510716438293, 0.01817907765507698, 0.03617384657263756, 0.05998481437563896, -0.09857543557882309, -0.08566512167453766, -0.05238460749387741, 0.034616414457559586, 0.09091103821992874, 0.07008760422468185, 0.010532565414905548, 0.07085005193948746, -0.10778457671403885, -0.10369794815778732, 0.12515677511692047, -0.09665859490633011, 0.02904205396771431, 0.007438919972628355, -0.06026936322450638, -0.09757393598556519, 0.06139342486858368, -0.020935574546456337, 0.07768910378217697], [0.06620670109987259, 0.04546668380498886, -0.0024818354286253452, -0.043117448687553406, -0.03792867809534073, 0.01634998247027397, 0.0544152557849884, -0.07149819284677505, 0.11296004801988602, -0.023202870041131973, -0.10116960853338242, -0.06542766094207764, 0.09175605326890945, 0.10635112971067429, -0.11497536301612854, 0.08730825781822205, 0.07412414252758026, 0.07011785358190536, 0.0788283497095108, -0.0461728610098362, 0.02861800417304039, 0.03264421969652176, -0.0225652027875185, 0.035471558570861816, -0.02289336360991001, 0.08638985455036163, -0.013596580363810062, -0.09287665784358978, 0.015054639428853989, 0.046694617718458176, -0.06664486229419708, 0.01450106780976057, 0.03924066573381424, 0.0035182947758585215, 0.05525248870253563, -0.0245668925344944, 0.031054658815264702, -0.08766818791627884, -0.04338980093598366, -0.07569565623998642, -1.0197292154220318e-21, -0.037406984716653824, 0.016556208953261375, -0.03632981702685356, 0.14494192600250244, 0.08523467183113098, -0.09731126576662064, -0.1141836941242218, -0.14939473569393158, -0.04381333664059639, -0.031857121735811234, -0.04150671884417534, -0.022942762821912766, -0.0028118935879319906, -0.08546032011508942, 0.016849812120199203, -0.03054240345954895, -0.06768589466810226, 0.00037559622433036566, 0.10929561406373978, -0.047955550253391266, -0.013934813439846039, -0.04137622192502022, 0.08911266177892685, -0.10853803157806396, -0.1252887099981308, 0.08297689259052277, -0.12219031900167465, 0.022709036245942116, 0.00440796697512269, -0.010136936791241169, -0.03012334369122982, 0.08836568146944046, 0.004602534230798483, -0.13205589354038239, -0.07234125584363937, -0.03619932010769844, 0.059409745037555695, -0.0646858811378479, 0.08468921482563019, -0.028036538511514664], [-0.011894650757312775, 0.06175176426768303, 0.054551661014556885, 0.09978709369897842, 0.06476229429244995, -0.035062700510025024, -0.09110645204782486, -0.027071567252278328, 0.07839310169219971, -0.04554283246397972, -0.12323752790689468, 0.04082987830042839, 0.12397246062755585, -0.012815643101930618, -0.07379137724637985, -0.10243730247020721, 0.032376669347286224, -0.0346270389854908, -0.06044984608888626, 0.020849628373980522, 0.03717397153377533, 0.06971894949674606, 0.0754484012722969, -0.013366617262363434, -0.1175764948129654, -0.12935702502727509, 0.07878662645816803, 0.043067093938589096, 0.057156018912792206, -0.09913916885852814, 0.0860668197274208, 0.1028408408164978, 0.10686812549829483, -0.1290736049413681, -0.07044706493616104, -0.1011761873960495, 0.06078458949923515, -0.063023641705513, -0.04889224097132683, 0.05591540411114693, -9.073846369657445e-27, -0.09323088824748993, -0.024399399757385254, -0.04310114309191704, -0.09429899603128433, 0.08273271471261978, -0.05246978625655174, 0.0310773104429245, 0.09701308608055115, 0.07898065447807312, -0.019092269241809845, 0.06430832296609879, -0.01347832940518856, -0.03808249533176422, 0.07572880387306213, 0.026774145662784576, -0.1015857681632042, -0.02699975110590458, -0.09556461870670319, 0.09072704613208771, -0.040805842727422714, -0.11598081886768341, -0.058889806270599365, 0.06542854011058807, 0.02895863726735115, 0.04327709972858429, -0.0033961983863264322, 0.06976805627346039, -0.03344874083995819, -0.06244859844446182, -0.11138182133436203, -0.10795444995164871, 0.003841382684186101, -0.08100371062755585, -0.004990144167095423, 0.0021649834234267473, 0.006264033727347851, -0.06855759024620056, 0.08405911922454834, -0.0656086876988411, 0.10129574686288834], [-0.07869856059551239, -0.024050183594226837, 0.06578308343887329, -0.030896566808223724, 0.0938255563378334, -0.07048941403627396, -0.08699238300323486, -0.07539699226617813, 0.03429228812456131, 0.10009878873825073, -0.04236571490764618, 0.04325791075825691, -0.003988773562014103, -0.028401155024766922, 0.09281618893146515, -0.08214121311903, 0.00023527909070253372, 0.07399310171604156, -0.005365118384361267, 0.09771468490362167, -0.028071070089936256, 0.08234614133834839, -0.13261008262634277, 0.015832511708140373, -0.007934034802019596, 0.012858870439231396, 0.047411300241947174, 0.062327850610017776, -0.031422872096300125, -0.020826788619160652, 0.10119699686765671, 0.0013414497952908278, 0.10332944244146347, -0.0887170135974884, 0.0017493537161499262, -0.01847773604094982, 0.04338298738002777, 0.0876525491476059, -0.0019517746986821294, -0.11897796392440796, 9.699348356251576e-27, 0.037376414984464645, 0.030748050659894943, -0.09038783609867096, 0.03673306480050087, 0.08807224035263062, -0.0018944359617307782, -0.09259776771068573, 0.0625845342874527, -0.117792047560215, 0.019654374569654465, -0.003514031181111932, -0.03768571838736534, 0.024556150659918785, -0.11051183193922043, 0.028892427682876587, -0.10786743462085724, 0.005391905549913645, 0.0019202769035473466, 0.09567542374134064, -0.04881161078810692, 0.06508810073137283, 0.00016796568525023758, -0.04891249164938927, -0.11526220291852951, -0.12582111358642578, 0.08019810169935226, -0.027650559321045876, -0.007234987337142229, 0.023840082809329033, 0.06659811735153198, 0.0896870568394661, 0.12071327120065689, -0.0788273736834526, -0.017016857862472534, -0.07408656179904938, -0.05663399025797844, -0.007745325565338135, 0.1322147101163864, -0.07678145170211792, 0.0642460435628891], [-0.06230911239981651, -0.01236193347722292, 0.09387742727994919, -0.02702004462480545, 0.013362053781747818, -0.07489929348230362, 0.10074863582849503, -0.05027112737298012, -0.09410702437162399, 0.022740764543414116, -0.06798464059829712, -0.09500259906053543, 0.017154576256871223, 0.07792139798402786, -0.02821369282901287, 0.05651787668466568, 0.09402193874120712, 0.08599581569433212, -0.06562060117721558, -0.0026823128573596478, -0.03005273826420307, -0.1035061851143837, 0.020246613770723343, 0.1055992916226387, 0.08033309876918793, -0.0018695491598919034, 0.025282656773924828, -0.045204099267721176, 0.08322179317474365, -0.07720024138689041, -0.05452664941549301, 0.02580161765217781, 0.09836987406015396, -0.11114851385354996, 0.08717621862888336, 0.04960636794567108, -0.07367698103189468, -0.025659749284386635, 0.09675318002700806, -0.06490708142518997, -1.0891901800075143e-28, 0.03474677726626396, -0.08325343579053879, 0.07281263917684555, 0.05446881055831909, 0.056920215487480164, -0.0759725496172905, 0.10540476441383362, -0.040727902203798294, 0.11243041604757309, -0.07621235400438309, -0.1216372400522232, 0.09013811498880386, -0.006653925869613886, 0.003315893467515707, -0.048046525567770004, -0.05129241570830345, -0.03662387654185295, -0.10190894454717636, 0.016909757629036903, 0.0355801060795784, -0.03435767441987991, 0.023179758340120316, 0.0615384504199028, 0.021057559177279472, -0.04306915029883385, -0.02726489119231701, -0.10388466715812683, -0.05427432432770729, -0.002340636681765318, -0.009000261314213276, 0.0499022901058197, -0.05706195533275604, 0.08441948145627975, -0.08289092034101486, -0.037529271095991135, 0.1012166365981102, 0.11064868420362473, -0.08745983988046646, 0.0038356510922312737, 0.011428819969296455], [-0.06674608588218689, -0.047463156282901764, 0.033032938838005066, -0.10640349239110947, 0.03306901827454567, 0.04073633626103401, -0.0604235976934433, 0.08233807235956192, -0.005343283526599407, 0.043107785284519196, 0.09001372009515762, -0.029844800010323524, 0.04177863523364067, -0.048488982021808624, -0.003106303745880723, -0.01748446375131607, 0.0010022538481280208, -0.03716861456632614, 0.005339683499187231, -0.006550705526024103, 0.04253891855478287, -0.043954089283943176, 0.00048781937221065164, -0.033420808613300323, -0.10875953733921051, 0.038361307233572006, -0.007398091722279787, -0.03400241956114769, -0.04400595650076866, 0.006969122216105461, -0.042194947600364685, 0.08395841717720032, -0.00967436470091343, 0.02089386060833931, 0.019274704158306122, -0.04197612404823303, 0.04292804375290871, 0.05487076938152313, -0.002282512141391635, 0.008663088083267212, -6.334189512972298e-33, 0.04715372994542122, -0.053230639547109604, -0.07230126857757568, 0.040775880217552185, -0.1363448053598404, -0.01646500825881958, -0.05756606161594391, 0.06855972856283188, -0.13496312499046326, 0.05018594115972519, 0.09378232806921005, 0.02211594767868519, -0.024177392944693565, 0.07797034084796906, -0.06506738066673279, -0.023494523018598557, -0.06211806461215019, -0.03725646436214447, -0.013100599870085716, 0.001888098195195198, -0.029607536271214485, -0.13065749406814575, 0.01135290041565895, -0.015847112983465195, -0.007493003737181425, 0.06447070837020874, 0.1028357446193695, -0.08069487661123276, 0.008773483335971832, -0.06885845959186554, -0.09919729828834534, -0.09863483905792236, 0.10075779259204865, 0.023983540013432503, 0.047939229756593704, 0.05932624265551567, -0.07138840109109879, -0.013543586246669292, 0.09334687888622284, -0.08099441975355148], [0.09290003031492233, 0.03963843360543251, 0.07069311290979385, -0.03893290087580681, 0.05050218850374222, -0.08704658597707748, 0.013405182398855686, 0.019756900146603584, 0.057097624987363815, 0.08004148304462433, 0.11467613279819489, 0.086299367249012, 0.06024964898824692, 0.07975530624389648, -0.008564804680645466, -0.08586116880178452, -0.03803287073969841, -0.021781139075756073, -0.06766043603420258, 0.06427859514951706, 0.040244895964860916, 0.02307947166264057, 0.029295120388269424, 0.10392365604639053, 0.04297473654150963, -0.10754258185625076, -0.07362717390060425, 0.05383670702576637, 0.008015149272978306, 0.07359524071216583, -0.09964378923177719, -0.07683680206537247, 0.05661754310131073, 0.09669751673936844, -0.07134973257780075, 0.03266913443803787, -0.09825380891561508, 0.10182854533195496, 0.05587781220674515, 0.13508139550685883, 6.298357353802798e-22, -0.091281458735466, 0.09631513804197311, 0.12154483050107956, 0.03879106417298317, 0.07641047239303589, -0.08585473895072937, 0.08877246081829071, -0.09590299427509308, 0.03561318293213844, -0.06580004841089249, -0.01628912426531315, -0.0019435452995821834, -0.060950007289648056, -0.044315773993730545, -0.07511511445045471, -0.11783015727996826, 0.020774899050593376, -0.03147021681070328, -0.0741586908698082, -0.03864149749279022, -0.10358750820159912, -0.08274092525243759, 0.05761568993330002, 0.04816821590065956, 0.007511114235967398, -0.07270463556051254, 0.017523404210805893, 0.015949353575706482, -0.06211221218109131, 0.030391640961170197, 0.0879937931895256, -0.11354104429483414, -0.11672604829072952, 0.017513060942292213, 0.0794089287519455, -0.09099487215280533, 0.015764662995934486, 0.09520085155963898, 0.009459651075303555, -0.0009343486744910479], [0.11216756701469421, 0.0895242691040039, -0.04961925372481346, -0.009741107933223248, 0.05573108792304993, 0.09702518582344055, -0.10598781704902649, 0.055640581995248795, -0.04511618614196777, -0.11285338550806046, 0.0075088804587721825, -0.07606992870569229, 0.023593300953507423, -0.08109187334775925, -0.09652843326330185, -0.0213171374052763, -0.04227770119905472, 0.07034524530172348, 0.0040338183753192425, 0.0889943316578865, 0.013321409933269024, -0.05677911639213562, 0.061662402004003525, 0.010515223257243633, -0.001261032302863896, -0.011083708144724369, 0.012436957098543644, -0.030722718685865402, -0.02625402994453907, -0.05956224352121353, 0.04641212522983551, -0.10100915282964706, -0.056939344853162766, 0.07247775048017502, -0.060387007892131805, -0.0413617342710495, 0.03134557232260704, -0.019242357462644577, 0.008712642826139927, -0.0031357433181256056, -2.993571212025442e-26, -0.06567925959825516, -0.009427824057638645, 0.07723227143287659, 0.09816373139619827, -0.006541761569678783, -0.0980709120631218, 0.022274799644947052, 0.07027091085910797, -0.06220828741788864, -0.06344737857580185, 0.017203550785779953, -0.0026678466238081455, -0.12379539757966995, -0.06133421137928963, 0.037373386323451996, -0.021326297894120216, 0.07559128850698471, 0.09385289251804352, -0.0011612743837758899, -0.009990324266254902, -0.028458399698138237, 0.013137457892298698, 0.02385774813592434, -0.0746888667345047, -0.006936258636415005, -0.05691637843847275, 0.06053689494729042, -0.06945713609457016, 0.09303035587072372, -0.017438936978578568, -0.1049351915717125, 0.03428306430578232, 0.039712246507406235, 0.09209942817687988, 0.0663277879357338, -0.0871909037232399, 0.056340012699365616, -0.04035837575793266, -0.061278291046619415, 0.056731756776571274], [0.07955513149499893, -0.1115022823214531, -0.008891705423593521, 0.08340144902467728, 0.036693837493658066, 0.03798529505729675, -0.04418090730905533, -0.05354749411344528, 0.10533899068832397, -0.008743816055357456, 0.0973178967833519, -0.06510201096534729, -0.07278481870889664, -0.027028236538171768, -0.13403107225894928, 0.02636737748980522, 0.07732170075178146, 0.02474924363195896, -0.05887603759765625, 0.04993773624300957, -0.10312866419553757, 0.09694450348615646, -0.1201348528265953, -0.09019023180007935, -0.031464073807001114, 0.07305795699357986, -0.002280304441228509, 0.05348785221576691, -0.10620560497045517, 0.0359870009124279, -0.022048775106668472, 0.06255561113357544, 0.054566264152526855, 0.0180868711322546, 0.029383134096860886, -0.02905965968966484, -0.09334877133369446, -0.04960376024246216, 0.06639181822538376, -0.016878178343176842, -6.091702732290502e-25, -0.03187323361635208, -0.028223885223269463, 0.001912843668833375, -0.10813714563846588, -0.009415535256266594, -0.01813657581806183, -0.03179736062884331, -0.029652543365955353, 0.09993890672922134, 0.06113399937748909, -0.09421598166227341, 0.04408455267548561, -0.08157836645841599, -0.11660120636224747, 0.024452751502394676, -0.011867758817970753, -0.053582433611154556, -0.0926201269030571, -0.04784401133656502, 0.0300543624907732, -0.09093857556581497, -0.12035415321588516, 0.00022524774249177426, -0.08748488873243332, -0.07550334185361862, -0.05537863075733185, -0.05132847651839256, -0.11646261811256409, -0.13012748956680298, 0.0005787865957245231, -0.09807370603084564, -0.04948272183537483, -0.08513092249631882, -0.06132126227021217, 0.06636064499616623, -0.11583196371793747, -0.07184064388275146, 0.07528438419103622, 0.011613067239522934, 0.05880492925643921], [-0.04060680791735649, -0.0705195963382721, -0.009996628388762474, -0.014044217765331268, 0.07701348513364792, -0.0926688089966774, -0.0018136310391128063, 0.03541010618209839, -0.04867064207792282, -0.05740629509091377, 0.07832828909158707, -0.09538436681032181, 0.032045651227235794, -0.08620291203260422, 0.05691925808787346, -0.10396502166986465, 0.08146031200885773, -0.11044326424598694, -0.0911559909582138, 0.0011512242490425706, 0.09103964269161224, -0.08693920075893402, -0.04733452573418617, 0.09426630288362503, -0.02778559736907482, 0.057189688086509705, -0.07796213030815125, -0.04610476642847061, -0.04429921507835388, 0.08857542276382446, 0.053184881806373596, -0.09713224321603775, 0.0068756695836782455, -0.0003300008538644761, -0.029770031571388245, -0.06324318796396255, -0.051256775856018066, 0.0982741191983223, -0.046397630125284195, -0.09037529677152634, -1.2135957451358293e-28, -0.008866793476045132, 0.03176926448941231, 0.0204890426248312, -0.04267532750964165, -0.08472256362438202, 0.003603145480155945, -0.02072124369442463, 0.12432587891817093, -0.0709085613489151, -0.042042750865221024, -0.09466347098350525, 0.014923574402928352, 0.06938488781452179, 0.08444081246852875, -0.08149551600217819, 0.015389625914394855, 0.05916522815823555, 0.03040395677089691, 0.10849268734455109, 0.008608859032392502, -0.07176163792610168, 0.0804288387298584, -0.012325224466621876, 0.05004663020372391, -0.05103724077343941, 0.01804366149008274, 0.11210571974515915, 0.07515546679496765, -0.09432151168584824, -0.03369780257344246, -0.045337725430727005, -0.06868662685155869, 0.1346753090620041, -0.015729548409581184, -0.06396031379699707, -0.0369083397090435, -0.06650218367576599, 0.01281904149800539, -0.08826208859682083, -0.0974854975938797], [-0.12233041971921921, 0.031204011291265488, 0.03496131673455238, -0.09947789460420609, 0.018596703186631203, 0.09128904342651367, 0.006111329421401024, -0.051158592104911804, 0.0031452253460884094, -0.03405667841434479, 0.0363553948700428, -0.09184468537569046, 0.028218789026141167, 0.041627880185842514, -0.054837416857481, 0.0811392217874527, 0.12034280598163605, -0.058248866349458694, -0.05731353908777237, 0.04904952272772789, -0.08633283525705338, 0.014063459821045399, 0.0184503011405468, 0.04845116659998894, -0.1086110919713974, -0.10722231864929199, 0.066330187022686, 0.024223534390330315, -0.1209106519818306, -0.07272424548864365, -0.10540089011192322, -0.08500134944915771, -0.06651131808757782, 0.08343032747507095, -0.023778224363923073, 0.05420313775539398, 0.08981896191835403, 0.022774573415517807, -0.10475146025419235, 0.03673575818538666, -7.653025449552783e-28, 0.02496907114982605, -0.12824377417564392, 0.02873738296329975, 0.06813031435012817, -0.12091711908578873, -0.008901594206690788, 0.07522337883710861, -0.10258017480373383, 0.027384156361222267, -7.081083458615467e-05, 0.018995989114046097, 0.11074591428041458, 0.10522381216287613, 0.10623829066753387, -0.029162641614675522, 0.0710519477725029, -0.11763782054185867, -0.06003358215093613, -0.029206793755292892, -0.05439627170562744, 0.09050789475440979, 0.03061414510011673, 0.036187466233968735, 0.0695982351899147, -0.08460121601819992, -0.043491873890161514, 0.006286222022026777, 0.016537243500351906, 0.044097527861595154, -0.06429729610681534, -0.05009743943810463, 0.07372687011957169, -0.04709833115339279, -0.08550282567739487, 0.05345563217997551, 0.06823256611824036, -0.05596765875816345, -0.08712614327669144, -0.09313179552555084, -0.10412690788507462], [0.03378983214497566, -0.04770054295659065, 0.09152024239301682, -0.09496910125017166, -0.01044023409485817, 0.019732384011149406, 0.05574377626180649, 0.10781366378068924, 0.06578878313302994, 0.06164674088358879, -0.04471733048558235, -0.08782218396663666, -0.10205531120300293, -0.00887979008257389, 0.10395390540361404, -0.023316282778978348, -0.011746258474886417, -0.05071078985929489, 0.013262175023555756, 0.07580768316984177, -0.116061270236969, -0.09945717453956604, 0.06525502353906631, 0.024318115785717964, -0.022261355072259903, 0.02811431512236595, -0.010572560131549835, -0.06841542571783066, -0.11484172195196152, 0.08057926595211029, -0.020403876900672913, -0.008716362528502941, -0.010881575755774975, -0.048429325222969055, -0.03746061027050018, -0.09185533970594406, 0.07917006313800812, 0.0378081351518631, -0.07729984074831009, -0.03347419574856758, -8.092659018702012e-27, -0.015661291778087616, 0.005146879702806473, 0.011679301038384438, -0.10783971846103668, 0.014147263951599598, 0.0190370362251997, 0.10196705907583237, -0.030225124210119247, -0.03478185459971428, 0.07885171473026276, -0.10445757955312729, -0.006884174421429634, 0.09841631352901459, -0.05302778258919716, 0.1031232625246048, 0.10746059566736221, 0.10570382326841354, -0.01394710224121809, 0.09557220339775085, -0.05598797649145126, -0.022394299507141113, 0.02281448431313038, 0.003847385523840785, 0.04631125181913376, 0.10159310698509216, -0.08077729493379593, 0.04984436184167862, 0.043615810573101044, 0.03087455779314041, 0.03998495638370514, -0.025937438011169434, -0.09276393800973892, 0.06661703437566757, -0.07831934094429016, 0.04888508841395378, -0.11030104011297226, -0.026026315987110138, -0.002009484451264143, 0.02805367298424244, -0.006677848286926746], [0.043580248951911926, -0.019836314022541046, 0.03394978120923042, 0.08312247693538666, -0.07481598109006882, 0.009090290404856205, -0.02597295120358467, 0.07390579581260681, 0.10976174473762512, -0.003686652285978198, -0.033973149955272675, -0.07363063842058182, 0.08627176284790039, 0.004762833006680012, 0.15146753191947937, 0.05325951799750328, 0.11325709521770477, 0.07954637706279755, -0.08402164280414581, 0.04418695345520973, -0.04532971978187561, 0.06826365739107132, 0.011300623416900635, 0.004575330298393965, -0.05682501941919327, -0.12479017674922943, 0.0426575168967247, 0.02759947068989277, 0.02968074008822441, 0.058011192828416824, -0.045698393136262894, 0.03298596665263176, -0.04393177479505539, 0.039487842470407486, -0.033378053456544876, 0.08923926949501038, 0.09139193594455719, 0.09467258304357529, 0.024467557668685913, 0.04563118517398834, -3.207877905211316e-21, -0.07291232794523239, 0.013888036832213402, 0.004001452587544918, -0.0767475962638855, -0.06726916879415512, -0.026638517156243324, -0.07885723561048508, 0.024717923253774643, 0.0755590870976448, 0.07184377312660217, -0.043118152767419815, -0.09715350717306137, -0.0745113417506218, 0.003286882070824504, 0.08809280395507812, -0.04177696630358696, -0.05808737501502037, -0.06391549110412598, -0.0017248648218810558, -0.09967070072889328, -0.09348918497562408, 0.10460703819990158, -0.04322235658764839, -0.009474973194301128, -0.06057038903236389, -0.06826312094926834, -0.029582995921373367, 0.033988162875175476, -0.041670121252536774, -0.007543822750449181, -0.006669760216027498, -0.056400008499622345, 0.09082447737455368, 0.07648971676826477, 0.07559369504451752, -0.046803053468465805, 0.061646781861782074, -0.11756834387779236, -0.034661371260881424, -0.011343496851623058], [-0.052012503147125244, 0.07426773011684418, -0.05128781497478485, -0.04341519623994827, -0.05523785948753357, -0.08289873600006104, -0.012024951167404652, -0.09931106865406036, 0.06403683125972748, 0.070691779255867, 0.10246031731367111, -0.018665138632059097, 0.010912365280091763, 0.030380407348275185, 0.12535513937473297, 0.1288229376077652, -0.04755568131804466, -0.0695996955037117, -0.0831601545214653, -0.06779396533966064, 0.08845650404691696, 0.05735336244106293, 0.09799102693796158, 0.07723779231309891, 0.002507701748982072, -0.06035126373171806, 0.12499932944774628, 0.12519119679927826, 0.054675471037626266, -0.03841738775372505, 0.07395157217979431, -0.0015721835661679506, 0.10270825773477554, 0.0365787073969841, 0.07463051378726959, -0.05765391141176224, -0.05968170240521431, 0.060085829347372055, -0.042110297828912735, -0.08032988756895065, -6.506317244290396e-22, -0.002507212571799755, 0.10399837046861649, -0.06948885321617126, 0.08480619639158249, -0.025702238082885742, -0.021888401359319687, -0.009962774813175201, -0.047653812915086746, 0.07669305801391602, 0.006633564364165068, 0.09119778871536255, 0.03756391257047653, -0.009995773434638977, -0.04198591411113739, -0.0947331115603447, -0.02701917290687561, -0.08822806179523468, 0.0007195380749180913, 0.02136887051165104, 0.021361131221055984, -0.023689446970820427, 0.09508232027292252, 0.07038097828626633, -0.024999048560857773, -0.05588087812066078, 0.09770385921001434, 0.09264940023422241, -0.10296841710805893, -0.018908143043518066, -0.015193093568086624, -0.029595820233225822, 0.14315058290958405, -0.011283903382718563, 0.07843296229839325, -0.009022234007716179, -0.022621022537350655, -0.050606708973646164, 0.006798853632062674, 0.04671482741832733, 0.0709170401096344], [-0.02187512442469597, 0.14618025720119476, -0.09137260913848877, 0.024144070222973824, 0.1053389236330986, -0.03173618018627167, 0.07630841434001923, -0.005789481569081545, -0.08956640958786011, -0.09005803614854813, 0.04009173810482025, -0.0528353676199913, -0.007135889958590269, 0.09657042473554611, 0.015257089398801327, -0.02515454590320587, 0.01365428976714611, -0.08153291046619415, -0.08824877440929413, -0.09097611159086227, -0.10635152459144592, 0.0020200787112116814, 0.013064857572317123, -0.06596551090478897, -0.11714719980955124, 0.07165046781301498, -0.0591985285282135, 0.0009087217622436583, -0.10924922674894333, -0.04519953951239586, 0.062027476727962494, -0.13701047003269196, -0.08515258133411407, 0.09229665249586105, -0.0889461562037468, -0.023924194276332855, 0.0026484141126275063, 0.032265812158584595, -0.08509863913059235, -0.01747784949839115, 3.735797572535864e-27, -0.04378155991435051, 0.02085118554532528, -0.08938592672348022, 0.03998183459043503, 0.02348056435585022, -0.03343259170651436, -0.07049167156219482, 0.010648754425346851, 0.042247701436281204, -0.02952272817492485, 0.04970399662852287, 0.01773085631430149, -0.04139568284153938, -0.013064590282738209, 0.08805505186319351, -0.01070101372897625, -0.10748600214719772, -0.020393937826156616, 0.041683584451675415, -0.0553295835852623, -0.09977937489748001, 0.08196529746055603, 0.040580056607723236, -0.04629633575677872, -0.0015777128282934427, -0.041797492653131485, 0.006156856659799814, -0.00048365810653194785, -0.07940872013568878, 0.028474235907197, -0.023107774555683136, -0.011616671457886696, -0.034331709146499634, 0.0047998810186982155, -0.09232712537050247, 0.024941621348261833, 0.03801269084215164, -0.012589468620717525, -0.09861478954553604, -0.002225367585197091], [0.00042243857751600444, -0.09823691099882126, -0.11910578608512878, 0.08427557349205017, 0.08624748140573502, 0.04435940831899643, 0.06030478700995445, 0.04329826310276985, 0.07675360143184662, 0.09925497323274612, -0.024062540382146835, -0.01465934794396162, 0.07457007467746735, -0.015492795966565609, -0.09778834134340286, -0.10333561152219772, 0.0566338449716568, 0.07758311927318573, 0.06583092361688614, 0.025255979970097542, 0.06821995973587036, -0.11369237303733826, -0.0776011198759079, -0.1191699430346489, 0.0894739106297493, 0.0021779064554721117, -0.04020550847053528, 0.032171498984098434, -0.037682514637708664, -0.06973063945770264, 0.062049396336078644, 0.019931938499212265, -0.10950212180614471, -0.06921975314617157, 0.05179787427186966, 0.08459560573101044, 0.01866612210869789, -0.059563688933849335, 0.05932912603020668, 0.08779063075780869, -5.86282182066725e-23, -0.07994706183671951, 0.011557478457689285, 0.05363544076681137, -0.03318702057003975, 0.07059573382139206, -0.061405379325151443, 0.13945215940475464, 0.08687210828065872, 0.0058693732134997845, 0.05028294771909714, 0.05016179010272026, -0.07104005664587021, -0.011360827833414078, 0.05405552685260773, -0.002591970842331648, 0.11101057380437851, -0.0085733812302351, -0.09032601118087769, -0.05675544962286949, -0.07493191212415695, 0.0852539986371994, -0.05643901228904724, -0.07620492577552795, 0.0002816159976646304, -0.07969449460506439, -0.03072233498096466, 0.06680826097726822, -0.06268832087516785, 0.056774791330099106, 0.07136496901512146, 0.005306366831064224, 0.06889745593070984, -0.028818776831030846, 0.09850241988897324, 0.09121433645486832, 0.03848976641893387, 0.10562306642532349, -0.10071896016597748, 0.0011837361380457878, -0.0037706508301198483], [-0.09928858280181885, 0.060364291071891785, -0.03945930302143097, -0.026634784415364265, -0.08038532733917236, 0.05469989404082298, -0.09933741390705109, -0.034054480493068695, 0.043728306889534, 0.08376190066337585, 0.018135877326130867, -0.06277509033679962, -0.03458701819181442, 0.03817277029156685, 0.003915789071470499, 0.08932273089885712, 0.03532088175415993, 0.08757346868515015, -0.09990198165178299, 0.06987649202346802, -0.04519011825323105, -0.042779840528964996, 0.020428720861673355, -0.034709736704826355, 0.018960416316986084, 0.1030300036072731, -0.07286688685417175, 0.03953654319047928, -0.0648597702383995, 0.010032156482338905, 0.14043810963630676, 0.07502342015504837, 0.10473626106977463, 0.06751290708780289, -0.023880768567323685, 0.02561282366514206, -0.03325910121202469, 0.08549416810274124, 0.05787717178463936, -0.07033093273639679, 1.2243984578404777e-22, 0.015036950819194317, -0.03545268252491951, -0.03191928192973137, -0.03382961452007294, 0.005936216562986374, -0.038117051124572754, -0.07826893031597137, -0.05803776532411575, -0.0005658597801811993, 0.08315186202526093, 0.09334181994199753, -0.07461147010326385, -0.02527581714093685, -0.021788598969578743, -0.06464911997318268, 0.0077605643309652805, -0.03204866871237755, 0.06812193989753723, -0.060707937926054, 0.01631648652255535, -0.04858683794736862, -0.033869847655296326, 0.07411693781614304, -0.00680403970181942, -0.009839526377618313, 0.11888958513736725, 0.04276493191719055, -0.06404368579387665, -0.0636904314160347, 0.003395026782527566, -0.017594031989574432, 0.013987383805215359, -0.02316092886030674, 0.119476318359375, -0.12337291240692139, -0.0432165190577507, 0.04161449149250984, 0.08057274669408798, 0.08479184657335281, 0.025638937950134277], [0.012532074004411697, -0.04154001548886299, 0.050668828189373016, -0.07552752643823624, 0.0104688610881567, -0.07961565256118774, -0.12715557217597961, 0.05416130647063255, 0.02624634839594364, 0.08987850695848465, 0.07658622413873672, 0.06090758740901947, 0.05186252295970917, -0.03517797961831093, 0.05853636562824249, 0.06070277839899063, 0.038446009159088135, -0.03513740748167038, 0.026501184329390526, 0.0014314127620309591, -0.0750374123454094, 0.025893010199069977, -0.08544378727674484, 0.047294192016124725, -0.07536016404628754, -0.07766806334257126, -0.04020138084888458, 0.07228375971317291, -0.07421251386404037, 0.0595410093665123, 0.05752246081829071, 0.07496127486228943, 0.02880655974149704, 0.05258440598845482, 0.0505361445248127, 0.00586620531976223, 0.046082332730293274, -0.0764225423336029, -0.06131935492157936, 0.024009015411138535, -3.323482936342569e-31, -0.10349363833665848, -0.10623274743556976, -0.0727037563920021, 0.0505240336060524, 0.105858713388443, -0.09460528194904327, 0.05189589783549309, -0.08904629945755005, -0.09334920346736908, -0.05712861940264702, -0.038809411227703094, 0.03328274190425873, -0.08477085828781128, 0.11017099022865295, 0.12359053641557693, 0.04060865566134453, 0.09799293428659439, -0.043926626443862915, -0.03599300608038902, -0.03822385147213936, 0.03029465489089489, -0.07737573981285095, -0.07184954732656479, 0.04383811727166176, 0.04603602737188339, 0.11107227951288223, -0.030593642964959145, 0.03746425732970238, -0.05318872258067131, 0.05217538774013519, -0.02288360893726349, 0.10907022655010223, 0.06728032231330872, 0.09273975342512131, 0.05565894767642021, 0.012113306671380997, 0.06544054299592972, -0.06119741499423981, 0.11511518806219101, 0.09464319795370102], [0.0965917706489563, -0.05597662553191185, -0.059294894337654114, -0.001166681875474751, 0.026207080110907555, 0.053227368742227554, 0.0415734238922596, 0.09179671853780746, -0.009618262760341167, -0.03869936615228653, 0.03954717144370079, 0.030730074271559715, -0.07674691826105118, -0.011666799895465374, -0.10717449337244034, -0.04184434935450554, -0.04016367718577385, 0.08447296917438507, -0.07916615903377533, -0.0684581771492958, -0.111106276512146, 0.04344871640205383, -0.09264572709798813, 0.05158131942152977, -0.08396676927804947, -0.06043064594268799, -0.04159950464963913, 0.02986644208431244, 0.10081660747528076, 0.12206296622753143, -0.014601423405110836, -0.14435617625713348, -0.03973639756441116, -0.06633921712636948, -0.04161788523197174, 0.044484928250312805, -0.010413186624646187, 0.07497040182352066, 0.02869417704641819, -0.06678049266338348, -9.480791270326287e-35, 0.009173747152090073, -0.06909631937742233, -0.04209227114915848, 0.011929556727409363, -0.10408756881952286, 0.08573999255895615, -0.0008321492350660264, -0.1072750836610794, 0.07902690768241882, -0.08325830101966858, 0.033520910888910294, 0.10757683962583542, 0.0015403981087729335, 0.03032463602721691, 0.04269317537546158, 0.07186175882816315, -0.040808867663145065, -0.04706699773669243, 0.004012603312730789, 0.07045672088861465, 0.04784470424056053, 0.05486273020505905, -0.01743840053677559, 0.027465566992759705, -0.02161131612956524, 0.01346063707023859, -0.12779489159584045, -0.09891290962696075, 0.008779133670032024, 0.022742319852113724, 0.0975269228219986, -0.004609418101608753, 0.041685715317726135, 0.04735710844397545, -0.11179351806640625, -0.08816161751747131, -0.09308107197284698, 0.02411915361881256, -0.09076343476772308, -0.07213078439235687], [-0.018320223316550255, 0.022867947816848755, 0.02197427675127983, 0.08941744267940521, 0.0752449706196785, -0.07275987416505814, -0.019045798107981682, 0.0004043075896333903, 0.07380641996860504, -0.037297043949365616, -0.05118842050433159, -0.07117990404367447, 0.06335096806287766, -0.04866417124867439, -0.046676650643348694, 0.06643006205558777, 0.07655632495880127, 0.003936577122658491, -0.08719452470541, 0.08725269883871078, -0.048510681837797165, -0.07156971096992493, -0.10537055134773254, -0.06031351163983345, -0.09376893192529678, -0.068399578332901, -0.10802966356277466, -0.037792377173900604, 0.03666156157851219, -0.07648596912622452, -0.021242700517177582, -0.03694841265678406, 0.043067384511232376, 0.07206827402114868, -0.02568187564611435, -0.07076775282621384, -0.12665167450904846, -0.07227154076099396, 0.010448859073221684, 0.01509174145758152, -4.897213678798647e-26, -0.03468441963195801, 0.04299154877662659, -0.11201012134552002, 0.029123002663254738, 0.09100174158811569, -0.12235822528600693, -0.05490461364388466, 0.056027673184871674, -0.04786168783903122, -0.08685921877622604, 0.05300544947385788, -0.0074554188176989555, -0.0031685191206634045, -0.047309983521699905, 0.07668133080005646, 0.04349865764379501, 0.010933530516922474, -0.006150295026600361, 0.03938448056578636, 0.04315853863954544, -0.051835350692272186, -0.02407391369342804, 0.03178832307457924, -0.05082350969314575, 0.12017340958118439, -0.10052262246608734, 0.026730114594101906, -0.07706776261329651, 0.038855526596307755, 0.06068708002567291, -0.011643619276583195, -0.033865787088871, 0.05437587946653366, -0.08850711584091187, -0.07892533391714096, -0.12138449400663376, -0.06862878799438477, -0.006465899758040905, -0.06654006987810135, 0.012332908809185028], [-0.0159675944596529, 0.08090245723724365, -0.06493383646011353, -0.025695545598864555, 0.0514308363199234, -0.037296175956726074, 0.10078511387109756, -0.039203252643346786, 0.001442653127014637, -0.02993793413043022, 0.04251331835985184, 0.01778246834874153, -0.04760696738958359, 0.06180959194898605, -0.02843133732676506, -0.03775165602564812, -0.012983451597392559, 0.08925332874059677, 0.09693367779254913, 0.056673675775527954, 0.012300497852265835, 0.079438216984272, -0.0477936826646328, -0.05130577087402344, -0.03509543091058731, -0.06783213466405869, 0.03499174863100052, 0.025829462334513664, -0.06780384480953217, 0.004997184034436941, 0.009215125814080238, 0.09045563638210297, 0.11728943139314651, -0.07044728100299835, 0.05545392259955406, 0.0311777014285326, 0.03509897366166115, -0.01375641580671072, 0.04217764735221863, 0.025066930800676346, -2.2145107299239897e-21, -0.06562457233667374, -0.03863096982240677, -0.03834149241447449, -0.05021315813064575, 0.012324340641498566, 0.07172995060682297, -0.08441345393657684, 0.0931551530957222, 0.09790167957544327, -0.049491122364997864, 0.027900999411940575, -0.04600546136498451, 0.009439225308597088, -0.08344366401433945, -0.03208690881729126, -0.10108714550733566, -0.07992494106292725, 0.09153126925230026, 0.0025477013550698757, 0.00846313126385212, -0.08062303811311722, 0.0657556802034378, -0.08659062534570694, -0.02328149601817131, -0.07659096270799637, -0.058459676802158356, 0.08378830552101135, -0.08305282890796661, -0.030265500769019127, 0.02134033851325512, 0.043164584785699844, 0.04095061123371124, -0.08565466850996017, 0.0921035185456276, -0.10437729209661484, 0.015000009909272194, -0.01990421861410141, -0.04438956826925278, 0.07676973938941956, 0.08173535019159317], [0.013301781378686428, -0.04006701335310936, 0.07445764541625977, 0.06191623955965042, 0.024410421028733253, -0.00521978922188282, -0.01186507847160101, 0.10866355150938034, -0.0218000877648592, -0.029797403141856194, -0.05132564529776573, -0.06839893013238907, 0.07620234042406082, -0.0002235294959973544, -0.024918708950281143, 0.022155888378620148, -0.10991442203521729, -0.010446222499012947, -0.033474523574113846, 0.06672064960002899, 0.10516946762800217, 0.09528082609176636, 0.08694258332252502, -0.0693037137389183, -0.03499666228890419, 0.007581550162285566, -0.07536746561527252, 0.02913047932088375, -0.049365315586328506, 0.03683772683143616, 0.09951958805322647, -0.13205190002918243, 0.05268821120262146, 0.012742417864501476, -0.0500740222632885, 0.07000875473022461, -0.1019442081451416, -0.08278051018714905, -0.06189920753240585, 0.0418967604637146, -1.6642444012727163e-30, -0.057914748787879944, -0.11166178435087204, -0.0360591821372509, 0.07861586660146713, 0.10991671681404114, 0.0563606433570385, 0.01669570803642273, 0.01655118353664875, -0.08770571649074554, 0.02976144477725029, -0.09798542410135269, -0.06152186542749405, -0.025825856253504753, 0.06738828122615814, 0.01765339821577072, -0.03359537944197655, 0.01706678234040737, -0.11275424808263779, -0.050160858780145645, 0.0271304938942194, 0.018275320529937744, -0.015695130452513695, 0.07326453924179077, -0.08762464672327042, -0.0522238165140152, 0.09998428076505661, -0.0040889279916882515, -0.06268725544214249, 0.018552472814917564, 0.03804444149136543, -0.01610615663230419, -0.026714563369750977, 0.0034990329295396805, 0.05261484533548355, -0.01808026060461998, 0.0780782550573349, -0.11058548092842102, -0.06784164905548096, 0.08850809186697006, 0.010057960636913776], [0.011395870707929134, 0.047334689646959305, -0.017843108624219894, -0.029384946450591087, 0.04952055960893631, -0.0477311797440052, -0.04550357908010483, 0.01633717492222786, 0.06352858245372772, -0.024793554097414017, -0.05658793821930885, -0.017115537077188492, -0.05135515332221985, 0.06445343047380447, -0.041857294738292694, 0.11621955782175064, 0.07291474938392639, -0.05632272735238075, 0.07507487386465073, -0.10148288309574127, 0.012436696328222752, -0.09335784614086151, -0.05230565741658211, 0.02774936705827713, -0.04224678501486778, 0.09245701879262924, -0.0758613720536232, 0.10612733662128448, 0.06362847238779068, 0.10048365592956543, 0.0008236146531999111, 0.004575671628117561, -0.03190028294920921, 0.10833970457315445, 0.0066749113611876965, 0.032384611666202545, -0.004956895485520363, 0.0237497016787529, -0.0826362818479538, 0.10607611387968063, 6.92177718246672e-24, 0.1479920595884323, -0.035216234624385834, -0.026790665462613106, 0.03505321592092514, 0.042494818568229675, -0.009120547212660313, -0.11284809559583664, 0.10374879091978073, 0.11315633356571198, 0.06266387552022934, 0.11670643091201782, 0.03229251131415367, 0.004923783242702484, -0.06940319389104843, -0.07070416957139969, -0.06820647418498993, -0.04307304695248604, 0.08893485367298126, -0.013542832806706429, 0.016375992447137833, 0.02444322407245636, -0.08044855296611786, 0.0008826408884488046, 0.12035568803548813, 0.12445569783449173, 0.0962424948811531, -0.027845561504364014, 0.020075863227248192, 0.059526462107896805, -0.028346708044409752, -0.038528259843587875, 0.11635378748178482, 0.018141459673643112, -0.060148805379867554, 0.10505812615156174, 0.048875294625759125, 0.06220167130231857, -0.08545273542404175, 0.04542946815490723, 0.03659656643867493], [-0.014699446968734264, -0.06237978860735893, 0.08381251990795135, 0.04855198785662651, 0.048027314245700836, 0.04530883580446243, -0.004603153560310602, 0.029844244942069054, -0.02519947476685047, -0.06134936586022377, 0.022631417959928513, 0.022623294964432716, 0.061305392533540726, -0.020181357860565186, -0.010094044730067253, -0.02004639431834221, 0.05850064381957054, -0.07038532942533493, -0.08744819462299347, 0.03864608332514763, -0.09017913788557053, -0.029890911653637886, 0.04588155075907707, 0.0029288576915860176, 0.059116557240486145, 0.021843843162059784, 0.023773079738020897, -0.01505266036838293, 0.025410497561097145, 0.048880014568567276, 0.07575400918722153, -0.07156114280223846, -0.04095074161887169, -0.08836241066455841, -0.060506947338581085, 0.09561338275671005, -0.07642506062984467, -0.10289466381072998, 0.03608984127640724, -0.09108743071556091, -3.1303424613103672e-24, 0.008822632022202015, 0.11720100790262222, 0.13652071356773376, -0.07926195859909058, 0.07357652485370636, 0.01129635889083147, -0.07015647739171982, 0.04315648227930069, -0.006428315304219723, -0.076912522315979, -0.015723243355751038, -0.029541952535510063, 0.09451966732740402, 0.07860530912876129, -0.016940079629421234, -0.07780259102582932, -0.024848969653248787, 0.01349810790270567, 0.10265132784843445, 0.007418445311486721, 0.07074370235204697, 0.04125283285975456, -0.06569729745388031, -0.0702677071094513, -0.11471781879663467, 0.0065333959646523, 0.015768716111779213, 0.02559114433825016, 0.1267813742160797, 0.004793957807123661, -0.05453947186470032, -0.007665862329304218, -0.013233196921646595, -0.009724347852170467, 0.09345877915620804, 0.01158960722386837, 0.08769643306732178, 0.013671857304871082, -0.0201860424131155, 0.11180818825960159], [-0.06281709671020508, -0.004952155519276857, 0.034198589622974396, 0.04482044652104378, -0.12288891524076462, -0.009658507071435452, -0.039271701127290726, 0.07687928527593613, 0.03276726230978966, 0.05599937215447426, 0.06380860507488251, -0.03532043844461441, 0.014550521038472652, 0.0518573559820652, -0.09888551384210587, -0.08268138021230698, -0.018171776086091995, -0.01908491551876068, 0.009065729565918446, 0.11201784014701843, -0.0031149869319051504, -0.08516962081193924, -0.0544474795460701, 0.09605453163385391, -0.03225509822368622, -0.004090883769094944, 0.048465583473443985, 0.02234981767833233, -0.10141641646623611, 0.0810876190662384, 0.0716889426112175, 0.039797574281692505, 0.050406862050294876, -0.035428233444690704, -0.04474300146102905, 0.05318734794855118, -0.03671754151582718, 0.01947498880326748, -0.13130633533000946, -0.09304366260766983, -1.4092793034304354e-27, 0.00017771216516848654, -0.04689770191907883, -0.11746279150247574, 0.0759977251291275, -0.020041419193148613, -0.11824820935726166, 0.08068355917930603, 0.020611533895134926, -0.08010479062795639, -0.09397757798433304, 0.09351275861263275, -0.041822031140327454, -0.07978134602308273, 0.06026559695601463, -0.029869303107261658, 0.02055923081934452, -0.0808793231844902, -0.10538879036903381, -0.06879862397909164, -0.01509447954595089, -0.07421500235795975, 0.0945691466331482, -0.006131365895271301, -0.03800995275378227, 0.05558054894208908, -0.09589096158742905, -0.06767669320106506, 0.030331820249557495, -0.10243460536003113, 0.04226959869265556, -0.008464248850941658, -0.1137692928314209, -0.09386450797319412, 0.06363319605588913, 0.05342999845743179, -0.02638416178524494, -0.10278965532779694, -0.08164173364639282, -2.8319385819486342e-05, 0.009803528897464275], [0.03917501121759415, 0.004476433154195547, 0.0025410845410078764, 0.08139234781265259, 0.11606130748987198, 0.09297294169664383, 0.09594064950942993, -0.03575273975729942, -0.04964921250939369, 0.0003870028886012733, 0.03979593887925148, 0.048573072999715805, -0.01889987662434578, -0.04867491126060486, -0.0852951854467392, 0.10720468312501907, -0.03985872119665146, -0.029175827279686928, -0.06848753243684769, -0.07336139678955078, 0.03747743368148804, 0.050426557660102844, -0.032371580600738525, -0.030199017375707626, 0.08374612033367157, -0.0786714106798172, -0.09017561376094818, -0.01879027858376503, 0.11414331197738647, 0.01890026405453682, -0.01643616519868374, -0.010190130211412907, 0.07806643843650818, -0.0661223977804184, 0.043280214071273804, -0.007080951239913702, -0.006350062787532806, -0.007890432141721249, -0.08021749556064606, 0.08256679773330688, -7.910898686865687e-26, -0.12132589519023895, -0.11721658706665039, -0.04235899820923805, 0.09317901730537415, -0.0432569719851017, 0.0958428755402565, -0.07171972095966339, -0.1354655623435974, 0.03143474832177162, -0.07351941615343094, -0.02008902095258236, -0.008113604038953781, -0.007578602060675621, -0.12136758863925934, -0.10719582438468933, 0.0637206956744194, -0.023839071393013, -0.07520560920238495, -0.05291083827614784, -0.12378785014152527, 0.0596168078482151, 0.04246105998754501, 0.12149681150913239, -0.08197309076786041, -0.0014285717625170946, 0.05963220074772835, 0.11072264611721039, -0.1211056113243103, 0.027845118194818497, 0.04664114490151405, 0.06840186566114426, -0.08959004282951355, 0.06650251150131226, -0.05001038312911987, -0.05963032320141792, 0.016170769929885864, 0.07660399377346039, -0.054640717804431915, 0.05940943956375122, -0.0034810288343578577], [0.032842736691236496, 0.074091836810112, 0.018875518813729286, -0.09131208062171936, -0.039773210883140564, 0.009248429909348488, -0.11906814575195312, -0.010748342610895634, -0.06808017939329147, -0.01159636303782463, 0.08056452125310898, -0.08697734773159027, -0.06776785850524902, 0.05773965269327164, -0.13143697381019592, 0.045755188912153244, -0.08985444158315659, -0.012541369535028934, 0.035632215440273285, 0.046765755861997604, -0.09278024733066559, 3.2976131478790194e-05, 0.05024651065468788, 0.09066750854253769, -0.12177321314811707, -0.0577949658036232, 0.02451282925903797, 0.017570512369275093, -0.07050049304962158, -0.08975958824157715, -0.10041236132383347, -0.0467003658413887, -0.06905017048120499, -0.08677488565444946, -0.10613512992858887, 0.013707606121897697, 0.061646685004234314, -0.07023549824953079, 0.01208730973303318, 0.020210467278957367, 1.6595638182427703e-26, -0.055313508957624435, 0.015036659315228462, 0.1019243523478508, 0.07210633903741837, -0.09293480962514877, -0.018830852583050728, -0.01801854558289051, -0.050224196165800095, -0.1190323680639267, -0.08268360048532486, 0.07335276901721954, -0.03612985461950302, -0.00811095628887415, 0.0603775829076767, -0.053854554891586304, -0.011322036385536194, 0.048308633267879486, -0.05151354894042015, 0.026424122974276543, -0.005420673172920942, 0.06330326199531555, 0.08204660564661026, 0.060375988483428955, 0.006197981536388397, -0.06501240283250809, 0.020126935094594955, 0.0713702142238617, -0.045079395174980164, -0.07553060352802277, 0.08053585886955261, -0.015675388276576996, 0.03879949823021889, -0.040469881147146225, 0.05349191278219223, 0.10514918714761734, 0.07586823403835297, -0.04095839336514473, 0.10517096519470215, 0.0921609178185463, -0.003947574645280838], [-0.09782911837100983, -0.045492637902498245, -0.119646355509758, 0.06793732196092606, 0.0924932062625885, 0.06212589889764786, 0.016640394926071167, 0.023205246776342392, 0.11487042158842087, -0.05635892599821091, -0.053806647658348083, -0.10408302396535873, -0.02754894644021988, -0.00486953416839242, 0.04180947691202164, -0.08931493759155273, -0.0008011955069378018, -0.07452592998743057, -0.12000293284654617, 0.015418079681694508, -0.11064720898866653, 0.016779780387878418, -0.1063355803489685, -0.0802873969078064, -0.02424982562661171, -0.07349573820829391, 0.09493561089038849, 0.06895459443330765, -0.07511143386363983, 0.006692989729344845, 0.053324319422245026, 0.030233053490519524, -0.02282881736755371, -0.10244083404541016, 0.07868652790784836, -0.09353271126747131, -0.046820253133773804, 0.00611594133079052, -0.05574389547109604, -0.05794600397348404, -1.2371641205531262e-22, 0.058309897780418396, 0.062434691935777664, 0.08853578567504883, -0.05576401203870773, 0.06543321907520294, -0.013891064561903477, -0.04741150513291359, -0.04945732280611992, -0.04432196170091629, -0.0055467355996370316, -0.024894418194890022, 0.01406161580234766, 0.08233147114515305, -0.019892850890755653, 0.022009044885635376, 0.05887582525610924, 0.008534830063581467, 0.05532919242978096, 0.04041435942053795, 0.0995013490319252, -0.09905184060335159, 0.03821132704615593, -0.02405664138495922, 0.006036173552274704, -0.05791442096233368, 0.03622819110751152, 0.11215434968471527, -0.1165071576833725, 0.05528593063354492, 0.07880765199661255, -0.0059340475127100945, 0.013347284868359566, 0.09710393100976944, 0.0011378288036212325, -0.02429801970720291, 0.0024640089832246304, 0.01997409388422966, 0.046063076704740524, -0.02141113206744194, 0.043875016272068024], [0.029593098908662796, -0.06818463653326035, -0.00206692679785192, 0.06554855406284332, 0.006719077937304974, -0.015393917448818684, 0.08448771387338638, -0.10812254995107651, -0.05752038583159447, -0.04163282364606857, 0.11132928729057312, -0.11351833492517471, 0.008080528117716312, -0.1163620576262474, -0.007946726866066456, 0.006839953362941742, -0.029027989134192467, 0.0577985905110836, -0.005664593540132046, -0.07999467104673386, 0.034163571894168854, 0.034225866198539734, -0.003664107294753194, 0.10566776990890503, -0.07066519558429718, 0.03562714904546738, 0.052080657333135605, 0.048787061125040054, -0.00047958348295651376, 0.02948591858148575, -0.07157529145479202, -0.09361563622951508, -0.03625068441033363, -0.05300683528184891, 0.06551358103752136, 0.058892082422971725, 0.06415574252605438, -0.10804956406354904, -0.08347372710704803, -0.1387707144021988, -5.630878934038877e-28, -0.16389413177967072, -0.12485282123088837, -0.08714158833026886, -0.10573447495698929, -0.049061182886362076, -0.07081205397844315, -0.07267989963293076, 0.08208465576171875, -0.06713808327913284, 0.0790572538971901, -0.008197629824280739, -0.024111073464155197, -0.04453878477215767, -0.07154547423124313, -0.14584346115589142, 0.04987330734729767, -0.023720989003777504, -0.12246933579444885, 0.07715100795030594, -0.0016823208425194025, -0.07207050174474716, -0.08582016825675964, -0.08582167327404022, -0.10807456076145172, 0.07279343903064728, 0.06919695436954498, -0.006936275400221348, -0.11364372819662094, -0.04866473749279976, -0.14182300865650177, 0.01600111462175846, -0.04016583040356636, -0.039131827652454376, -0.040117647498846054, 0.0036959275603294373, 0.05304894968867302, 0.0008537563262507319, -0.007374039385467768, -0.04277459904551506, -0.04236776754260063], [-0.08723606914281845, 0.11470749229192734, -0.018380235880613327, 0.06238209456205368, -0.029781484976410866, 0.0027812570333480835, 0.026575911790132523, -0.07767929136753082, 0.03310783579945564, -0.05322260037064552, 0.04783613979816437, -0.010961176827549934, 0.06810396164655685, 0.11553429067134857, 0.0458180233836174, -0.0109699796885252, -0.044736240059137344, 0.03424827754497528, -0.0792531743645668, 0.06976505368947983, -0.01382421050220728, 0.08589410036802292, 0.08049149811267853, 0.06903356313705444, 0.007694311439990997, 0.06787540018558502, -0.1023271456360817, 0.07631342113018036, -0.012358748354017735, 0.03241581842303276, 0.021048152819275856, -0.03108636476099491, -0.0544077605009079, 0.09593909233808517, -0.05159200355410576, -0.03658689185976982, 0.08506081253290176, 0.005025574471801519, -0.09990029036998749, -0.07774729281663895, -2.6765039786114116e-26, 0.13983210921287537, -0.05624294653534889, 0.05117318406701088, 0.061446286737918854, -0.04149620607495308, -0.044915780425071716, -0.06035195291042328, -0.0004279654531273991, -0.05008605495095253, 0.004399802535772324, 0.01537218876183033, 0.03050117939710617, -0.027056176215410233, 0.014904584735631943, 0.03885377570986748, 0.002472667023539543, 0.007913735695183277, -0.07356341183185577, 0.08987024426460266, -0.03197920694947243, -0.017828721553087234, -0.10038109123706818, -0.07212554663419724, 0.012966644018888474, -0.026745665818452835, -0.040244366973638535, 0.06564339995384216, -0.010986534878611565, 0.049249500036239624, 0.09414750337600708, -0.07204988598823547, -0.06476586312055588, -0.03665701672434807, -0.00010856390144908801, -0.07905542850494385, -0.0465884655714035, 0.0010912808356806636, 0.03712661191821098, 0.08144471049308777, 0.05558641999959946], [0.01210080087184906, -0.006581129971891642, 0.030102116987109184, -0.026476271450519562, -0.027190973982214928, 0.040410932153463364, -0.08889831602573395, -0.08278418332338333, 0.01755889691412449, -0.027540214359760284, -0.05466311052441597, -0.1023935079574585, 0.07708457112312317, -0.011851383373141289, -0.04200204461812973, -0.046479836106300354, 0.038896895945072174, -0.06217629089951515, 0.013986092060804367, 0.009903102181851864, 0.059003833681344986, 0.060117967426776886, -0.06149917468428612, 0.05637066438794136, 0.09533222019672394, 0.005501026753336191, 0.06459271162748337, -0.03711727634072304, 0.04601440951228142, 0.018193533644080162, -0.027826907113194466, 0.10418989509344101, -0.0927625522017479, -0.03829996660351753, -0.052364494651556015, -0.05226937308907509, -0.0811309739947319, -0.09658972173929214, 0.0006060213781893253, -0.009851984679698944, -1.2186818037413945e-22, 0.016107769683003426, -0.028211209923028946, 0.041052017360925674, -0.07811333984136581, -0.043585725128650665, 0.027260124683380127, 0.04607149586081505, 0.00024410747573710978, 0.0244953241199255, 0.1201033964753151, -0.031556885689496994, 0.07569564878940582, 0.09395749121904373, -0.07464884221553802, 0.04084276780486107, 0.08210776001214981, -0.0017008221475407481, 0.08725609630346298, 0.014748864807188511, 0.1125030666589737, 0.03091016598045826, -0.06021502986550331, 0.10170669108629227, 0.033081717789173126, 0.05877481400966644, 0.03347386047244072, 0.06953028589487076, 0.08139094710350037, 0.015298042446374893, -0.02478703111410141, 0.015598352067172527, -0.07106456905603409, 0.016268055886030197, -0.008644168265163898, -0.003194840857759118, -0.08925392478704453, 0.06179153174161911, -0.09725220501422882, 0.031863439828157425, 0.06225568801164627], [-0.07653158903121948, 0.0852094516158104, -0.09432724118232727, -0.018225204199552536, 0.08666562288999557, -0.034746550023555756, 0.065066397190094, -0.0638304054737091, -0.02404971607029438, -0.07732803374528885, -0.06546209752559662, 0.1043430045247078, 0.09874344617128372, -0.0032800694461911917, -0.0026010782457888126, -0.13266363739967346, 0.07488592714071274, -0.03372843563556671, -0.047348178923130035, -0.09220223128795624, 0.10211148858070374, 0.02593846619129181, 0.04431566223502159, 0.024002544581890106, -0.08933135867118835, 0.031912680715322495, 0.0019716164097189903, 0.029364440590143204, -0.024507319554686546, -0.04311484470963478, 0.11171332001686096, -0.01777162402868271, -0.05958853289484978, -0.018459750339388847, -0.03561101481318474, -0.006594061851501465, 0.026256464421749115, -0.07841601222753525, 0.12006574869155884, 0.08487100899219513, 9.482632572024255e-35, -0.003494815668091178, -0.0031911684200167656, -0.10419843345880508, 0.06850522756576538, -0.04882095009088516, 0.031496964395046234, -0.10919894278049469, 0.025532718747854233, 0.07302802801132202, 0.062268879264593124, -0.001926164492033422, 0.05188937485218048, 0.020924599841237068, 0.06220472976565361, 0.06810084730386734, -0.06992419064044952, 0.02878025732934475, -0.06733305752277374, -0.04772331938147545, 0.04263807460665703, -0.0050557442009449005, 0.006767373997718096, 0.0786263644695282, 0.07646947354078293, 0.0566382110118866, -0.035516899079084396, -0.06777134537696838, -0.11549854278564453, 0.027043530717492104, -0.011843036860227585, -0.06567405164241791, 0.06423212587833405, 0.12650571763515472, 0.0736890360713005, -0.0069474149495363235, 0.022075233981013298, -0.0799848809838295, 0.05411012843251228, -0.0682419016957283, 0.06553873419761658], [-0.05494220554828644, -0.047779083251953125, -0.14540940523147583, -0.038781359791755676, -0.014689134433865547, -0.0709216296672821, 0.07062607258558273, 0.050262451171875, -0.1329001486301422, -0.011966781690716743, 0.04721027612686157, 0.10989641398191452, -0.028428412973880768, 0.07962163537740707, -0.021953070536255836, -0.0508095808327198, 0.057335708290338516, -0.10173823684453964, 0.09589719772338867, 0.0999445766210556, -0.04447257146239281, 0.02357816882431507, 0.10042781382799149, 0.035313285887241364, 0.04251591116189957, 0.018118111416697502, -0.07499725371599197, 0.03180861473083496, -0.054546721279621124, 0.08633867651224136, -0.05776093155145645, 0.0016642152331769466, -0.018748769536614418, -0.005788025911897421, -0.01168004423379898, 0.041775718331336975, -0.047105301171541214, -0.06709852814674377, 0.05817157402634621, -0.04475104808807373, -6.021866276579393e-23, -0.03247677907347679, -0.08552094548940659, -0.055302560329437256, -0.040964797139167786, 0.017186429351568222, -0.03894767537713051, -0.047759972512722015, -0.04546814784407616, 0.09631694108247757, 0.014589952304959297, -0.06241200119256973, -0.05599716678261757, 0.008972528390586376, 0.026440691202878952, -0.001979668391868472, 0.05464864894747734, 0.10106168687343597, 0.03991061821579933, 0.033066295087337494, 0.03442486375570297, -0.07569312304258347, 0.02197095938026905, 0.11099940538406372, -0.02979864552617073, 0.0021224720403552055, -0.04466085508465767, -0.08033420890569687, 0.06090138107538223, 0.07230672240257263, -0.09418263286352158, 0.05025232955813408, -0.019345002248883247, 0.05755435675382614, 0.035072434693574905, 0.08903584629297256, 0.07314689457416534, -0.1075625792145729, -0.03976454958319664, 0.06120730936527252, -0.08546371757984161], [0.027821680530905724, -0.023386264219880104, 0.020848382264375687, 0.03903932124376297, 0.024573475122451782, 0.09529393166303635, -0.014636578038334846, 0.07033082097768784, 0.0504649318754673, -0.036132849752902985, -0.08687587082386017, 0.09627032279968262, -0.012179440818727016, 0.07877766340970993, 0.09328734129667282, -0.008294272236526012, -0.07470572739839554, 0.025658247992396355, -0.03286024183034897, 0.03793658688664436, -0.04893913120031357, 0.11037392169237137, -0.08661338686943054, 0.0002834628976415843, 0.03331364691257477, 0.02014346607029438, 0.09048282355070114, -0.07267085462808609, -0.08479723334312439, 0.06667626649141312, 0.039538364857435226, 0.09326571971178055, -0.061642877757549286, -0.03513273224234581, -0.0212776530534029, 0.018527094274759293, 0.03975975885987282, -0.058047857135534286, -0.022721242159605026, 0.005112141836434603, -7.59643415801347e-22, -0.013527038507163525, 0.12212444841861725, -0.05815375596284866, -0.045722756534814835, -0.08468905836343765, 0.07737525552511215, -0.06300708651542664, 0.036708492785692215, -0.03621920943260193, 0.12213628739118576, -0.012323951348662376, -0.079801045358181, 0.008644015528261662, 0.017443543300032616, -0.0819607824087143, 0.04060882329940796, 0.1307680308818817, 0.058445125818252563, 0.023336242884397507, -0.009704955853521824, 0.007677020970731974, -0.023517368361353874, 0.10715379565954208, 0.10170215368270874, 0.054634567350149155, -0.036972492933273315, -0.09765076637268066, -0.05718328431248665, 0.10328375548124313, -0.0908103808760643, -0.140256866812706, 0.005429641343653202, 0.06026255339384079, -0.0839342325925827, -0.08378440141677856, 0.0038739601150155067, -0.012039531953632832, 0.05854027345776558, 0.031173361465334892, -0.08948154747486115], [-0.09464588016271591, 0.08772500604391098, -0.029525313526391983, -0.04621792957186699, 0.034070756286382675, -0.021376295015215874, 0.04635075852274895, 0.03096364438533783, -0.0425410233438015, -0.05838645249605179, 0.06098378077149391, -0.061756230890750885, -0.0010895583545789123, 0.014053423888981342, -0.05694027990102768, 0.04332030937075615, -0.0753580704331398, 0.04341549798846245, 0.005498121026903391, 0.0666964203119278, -0.09324350953102112, -0.0015989376697689295, 0.05584001913666725, -0.03496594354510307, 0.02384805493056774, 0.025041375309228897, 0.0953543558716774, -0.0013451057020574808, -0.00011098509276052937, -0.0637369453907013, -0.026713097468018532, 0.030479244887828827, -0.09748799353837967, 0.07650946080684662, 0.10470907390117645, 0.05589456111192703, 0.08668621629476547, -0.034872740507125854, 0.039152320474386215, 0.016024857759475708, -2.9871022814316937e-24, -0.034201353788375854, -0.010431730188429356, -0.038917992264032364, -0.09071768075227737, -0.0838644877076149, 0.005463652778416872, -0.012721836566925049, -0.08937332779169083, -0.0039044038858264685, 0.0847526490688324, 0.0983586236834526, 0.10356077551841736, -0.09374480694532394, -0.0451013520359993, -0.06666456907987595, 0.01994675025343895, 0.034668684005737305, 0.02080719918012619, 0.06043165177106857, 0.05952228978276253, -0.054888706654310226, 0.056988298892974854, 0.08416526019573212, 0.02091914229094982, -0.08297187834978104, -0.09473580867052078, 0.029943548142910004, 0.020396437495946884, 0.09234640002250671, 0.04868665710091591, 0.041201405227184296, 0.012767444364726543, 0.0791015475988388, -0.05285003408789635, 0.028503388166427612, -0.06150985136628151, 0.018453940749168396, 0.05641578882932663, 0.03637306019663811, -0.03573281317949295], [-0.008808638900518417, -0.07209593057632446, 0.04276652634143829, 0.07726158201694489, 0.020042389631271362, -0.10486533492803574, -0.05685524642467499, 0.0671793594956398, -0.0003970946418121457, 0.059610847383737564, 0.08826146274805069, -0.03913296014070511, -0.04325249791145325, -0.0730714201927185, 0.04785054549574852, 0.07143500447273254, 0.0019651453476399183, -0.11067376285791397, -0.10900223255157471, 0.008307339623570442, 0.050901081413030624, -0.033653587102890015, -0.08320995420217514, -0.05587007477879524, 0.11010762304067612, 0.05217474699020386, -0.031829219311475754, -0.06059075891971588, -0.09962045401334763, 0.022337863221764565, -0.01864098198711872, 0.03277638182044029, -0.00790309626609087, -0.07900813221931458, -0.08796239644289017, -0.07584170252084732, -0.05020707845687866, 0.023514075204730034, -0.028838206082582474, 0.024696528911590576, 1.9242036133836182e-31, 0.14730030298233032, -0.018492182716727257, 0.09708045423030853, -0.08629922568798065, -0.09588390588760376, 0.05272316560149193, -0.03190043941140175, 0.10386493802070618, -0.04247645288705826, 0.09449701011180878, 0.10808487981557846, -0.0007590226014144719, 0.034598663449287415, 0.10922972857952118, 0.0850054919719696, -0.08012569695711136, 0.0006045960471965373, -0.08750658482313156, 0.11347219347953796, -0.010768968611955643, 0.00487917335703969, -0.06340251117944717, -0.05004044994711876, 0.009588737972080708, 0.08183649927377701, -0.0329916886985302, 0.00895222369581461, 0.09885073453187943, 0.12652356922626495, -0.02988625317811966, 0.07965771853923798, 0.04577517881989479, 0.10568861663341522, 0.027525220066308975, -0.10747071355581284, -0.02146703191101551, 0.060910630971193314, 0.08256005495786667, -0.09583451598882675, 0.08699838817119598], [-0.12019903212785721, 0.06790953874588013, 0.09067750722169876, -0.00021681575162801892, -0.03509391471743584, 0.048773691058158875, -0.0231166984885931, -0.0829627737402916, -0.0525130070745945, 0.04218066856265068, 0.05532250553369522, 0.0016321777366101742, -0.12932804226875305, -0.07461830973625183, 0.00535115459933877, 0.03293091803789139, -0.01608465239405632, 0.049130991101264954, -0.03189642354846001, 0.0694531574845314, -0.026455597952008247, -0.026839420199394226, -0.10834839940071106, -0.11610723286867142, 0.003145689144730568, 0.05376449599862099, 0.06255394965410233, -0.10037743300199509, 0.02052992954850197, -0.03223282843828201, 0.026011742651462555, -0.024804875254631042, 0.044095125049352646, 0.066829152405262, 0.08177054673433304, -0.06311704218387604, 0.04090294986963272, -0.045637089759111404, 0.008025143295526505, -0.06567829847335815, 7.886311987861728e-25, -0.0648086667060852, -0.06698198616504669, -0.0607927143573761, -0.013192906975746155, -0.02199540287256241, -0.04632086306810379, 0.00658032763749361, -0.04853304103016853, 0.06382596492767334, -0.10509416460990906, -0.04386870563030243, -0.07235722988843918, 0.010163498111069202, -0.006768622901290655, -0.014429854229092598, 0.10978417098522186, -0.018067985773086548, 0.004686275497078896, 0.052149247378110886, 0.10406909883022308, 0.08313628286123276, -0.01230686530470848, -0.07593560963869095, 0.028897413983941078, 0.07142627239227295, -0.0042253779247403145, 0.05597919970750809, 0.101419597864151, -0.08041125535964966, -0.020864078775048256, -0.13966087996959686, 0.07072959840297699, 0.0794350877404213, -0.038104988634586334, 0.0415797233581543, 0.01913328841328621, 0.0029668500646948814, 0.07662122696638107, -0.0022522537037730217, -0.12353900820016861], [-0.06639621406793594, -0.1009267270565033, 0.032194219529628754, 0.07470893114805222, -0.004337946884334087, 0.13049787282943726, -0.019891589879989624, 0.02342882938683033, 0.12038896977901459, 0.058036886155605316, 0.035869672894477844, 0.10076341032981873, -0.07721646130084991, 0.057921040803194046, 0.09148558229207993, -0.07293092459440231, -0.09681698679924011, 0.06139412522315979, -0.0640549510717392, -0.013182038441300392, 0.040167436003685, -0.05403776094317436, 0.10207808762788773, 0.01879177987575531, -2.585122456366662e-05, 0.13206607103347778, 0.03239218145608902, 0.06400004029273987, -0.04525283724069595, 0.09631345421075821, -0.015997659415006638, 0.13460657000541687, 0.01606835424900055, 0.058515094220638275, 0.11767493188381195, -0.08265827596187592, -0.0759185329079628, -0.07177674770355225, 0.05206022039055824, 0.1129210889339447, 9.681849164183879e-28, -0.06828875839710236, -0.0030528069473803043, 0.05805272236466408, 0.008128226734697819, -0.02670777402818203, -0.05492783710360527, 0.09012133628129959, -0.062171924859285355, -0.10917602479457855, -0.07868596166372299, 0.0076928711496293545, -0.007581006735563278, 0.03135576471686363, -0.07974399626255035, -0.03540894389152527, -0.050816792994737625, -0.0650259479880333, -0.11001399159431458, 0.012906300835311413, -0.05771523714065552, -0.112895667552948, -0.05471068620681763, -0.07011139392852783, -0.047080326825380325, -0.08369621634483337, -0.06192244589328766, 0.011667300947010517, -0.09503217786550522, -0.014911300502717495, -0.040112245827913284, -0.09325245767831802, -0.03549289330840111, -0.057067353278398514, -0.01002430822700262, -0.08442619442939758, -0.016800522804260254, 0.0959198921918869, 0.06482528895139694, -0.04035577550530434, 0.0150612723082304], [-0.09461722522974014, 0.08339859545230865, -0.10363306850194931, -0.09015793353319168, -0.08050419390201569, -0.06556879729032516, 0.0160672664642334, -0.041987087577581406, 0.054032716900110245, -0.0005536619573831558, 0.011050823144614697, -0.026477636769413948, -0.0440526120364666, -0.12593427300453186, 0.0876440778374672, -0.058104321360588074, -0.009446196258068085, 0.048631422221660614, -0.036024004220962524, -0.024182405322790146, -0.08270319551229477, -0.08827246725559235, 0.04411293566226959, -0.049770232290029526, 0.0554647371172905, -0.009618123061954975, 0.005920592229813337, -0.08268173784017563, 0.0046324096620082855, -0.007319100666791201, -0.02926609292626381, -0.06356478482484818, 0.009766184724867344, -0.08158888667821884, 0.01770661026239395, 0.08822687715291977, 0.05109186843037605, 0.10493136197328568, 0.03541136905550957, -0.08564452081918716, -2.222506400232354e-27, 0.02056475542485714, 0.021042093634605408, 0.05552426725625992, 0.11457522213459015, 0.008248911239206791, -0.01992953009903431, -0.03915255144238472, -0.07955103367567062, -0.023402268067002296, 0.061984479427337646, -0.03075318969786167, -0.1102929636836052, -0.08620341122150421, 0.044847823679447174, -0.10333037376403809, -0.07845046371221542, -0.023026349022984505, 0.12142164260149002, -0.013872076757252216, -0.028112059459090233, -0.08460071682929993, 0.05720934271812439, -0.031019970774650574, 0.016853932291269302, 0.028641724959015846, 0.04102416709065437, 0.0782809630036354, 0.009201419539749622, 0.02665768936276436, 0.021365376189351082, -0.07667209208011627, -0.036928124725818634, 0.12229302525520325, -0.07289349287748337, -0.04874970763921738, -0.11313558369874954, 0.025728795677423477, -0.10111377388238907, -0.07281824201345444, 0.09439978748559952], [0.06150583177804947, 0.03052467852830887, 0.010857275687158108, -0.10545424371957779, -0.069963738322258, -0.09245236963033676, -0.09565281122922897, 0.023178981617093086, -0.0520487017929554, 0.10060450434684753, -0.06671410799026489, -0.1025363877415657, 0.07846604287624359, -0.10140260308980942, 0.09747067838907242, 0.03091074898838997, -0.10369188338518143, 0.12088718265295029, -0.042078305035829544, -0.06971585750579834, -0.07253976166248322, -0.08266295492649078, 0.005368935409933329, -0.102579265832901, 0.08175360411405563, -0.03695635870099068, 0.057032011449337006, -0.027249466627836227, 0.03366246819496155, -0.03402579575777054, 0.06408665329217911, -0.11450694501399994, -0.07649065554141998, 0.016968930140137672, -0.05254366993904114, -0.07819551229476929, -0.09769283980131149, -0.054879896342754364, -0.06510971486568451, 0.11743534356355667, 2.062525400949813e-25, 0.06478604674339294, 0.08342958986759186, 0.10554014891386032, -0.12348689138889313, -0.01695527695119381, -0.030822282657027245, -0.04777238517999649, 0.0762300193309784, -0.03977983817458153, -0.018806224688887596, -0.0022088580299168825, -0.08690421283245087, 0.10268239676952362, 0.06866773217916489, 0.10971561819314957, -0.009886957705020905, 0.02133709006011486, -0.021392032504081726, -0.05969740450382233, 0.08362063765525818, -0.0671348050236702, -0.015301264822483063, -0.03872383385896683, -0.10819072276353836, -0.0007415584404952824, 0.00197076634503901, -0.03353574126958847, 0.05876222625374794, -0.02309606224298477, -0.013233037665486336, -0.03106633946299553, -0.06334678828716278, -0.019442761316895485, -0.1069636419415474, -0.0895189419388771, -0.03126122057437897, -0.03942957893013954, -0.06787819415330887, 0.02080734632909298, 0.08934910595417023], [-0.10325916856527328, 0.046441271901130676, -0.04316761717200279, -0.0003700244997162372, 0.10810793191194534, 0.016374507918953896, -0.11611994355916977, 0.09318854659795761, -0.01253405399620533, -0.07279292494058609, -0.04489944130182266, 0.07364955544471741, 9.315292845712975e-05, 0.050523411482572556, 0.06728938221931458, -0.04351511597633362, 0.006105998530983925, -0.08210064470767975, 0.08139801025390625, -0.05557641759514809, 0.07633846998214722, 0.0485030934214592, 0.0770643949508667, -0.06724188476800919, -0.014210795983672142, 0.051410071551799774, -0.04030227288603783, 0.016303371638059616, 0.0578138530254364, -0.08461646735668182, -0.014352437108755112, 0.03454688936471939, 0.08778917789459229, 0.12550373375415802, -0.01966649480164051, 0.046414993703365326, -0.06740695983171463, -0.023759888485074043, -0.025188622996211052, 0.10798925161361694, 1.900422750123724e-34, 0.06185349449515343, 0.09441835433244705, 0.03667333722114563, -0.009035163559019566, -0.031608764082193375, -0.08561940491199493, 0.007552874740213156, -0.056801967322826385, -0.009497743099927902, 0.09733666479587555, -0.004576473031193018, -0.04575628414750099, -0.1300307810306549, -0.09011826664209366, 0.057297781109809875, -0.07005221396684647, -0.05053843557834625, -0.05420580878853798, 0.09777219593524933, -0.016960810869932175, 0.05509643256664276, 0.08835627883672714, -0.08008844405412674, 0.09342184662818909, -0.016116073355078697, 0.10092169791460037, 0.06301125884056091, -0.11385180056095123, 0.02679927833378315, 0.02859201468527317, -0.03812750056385994, 0.07255546748638153, -0.09305170923471451, 0.012721984647214413, 0.11168016493320465, 0.1050453633069992, 0.045721761882305145, -0.07998992502689362, -0.09443619102239609, -0.11481500416994095], [-0.03390129655599594, 0.06202046200633049, 0.02247384935617447, -0.019414765760302544, 0.09632693231105804, 0.0797230452299118, -0.0424061082303524, -0.07681173086166382, 0.01892821118235588, 0.015736879780888557, 0.007354810368269682, 0.029593365266919136, 0.06493072956800461, -0.04181699454784393, 0.05791798233985901, 0.0014708456583321095, 0.03700820729136467, 0.04786475747823715, -0.02324174903333187, -0.04666616767644882, 0.05423639342188835, -0.054142799228429794, 0.05844680964946747, -0.07195479422807693, 0.05560971051454544, 0.027007324621081352, -0.03253095597028732, 0.06814988702535629, -0.04845486953854561, 0.03077714331448078, 0.06511549651622772, 0.0026673872489482164, 0.008230556733906269, 0.01563023403286934, -0.037247177213430405, 0.05436510965228081, 0.07943838089704514, 0.05800500139594078, 0.1012454405426979, -0.016521092504262924, 3.821271908285849e-29, -0.014379529282450676, 0.0643196552991867, -0.10164026916027069, -0.07387901842594147, -0.02104894444346428, -0.09536872804164886, -0.0743023082613945, 0.09003257751464844, 0.025265350937843323, -0.0734485313296318, -0.017356742173433304, 0.007674206979572773, -0.06128493696451187, -0.10091104358434677, 0.05601397156715393, -0.0128036979585886, 0.11436395347118378, -0.07270413637161255, -0.05563275143504143, 0.006941495928913355, -0.10962089896202087, 0.0514012947678566, 0.0964495837688446, 0.10396416485309601, -0.06501612812280655, 0.09544394165277481, 0.07947659492492676, -0.052264079451560974, 0.0075881644152104855, 0.046142615377902985, 0.06262918561697006, -0.09545651078224182, 0.10419604182243347, -0.016619985923171043, 0.0479431077837944, -0.0755077674984932, -0.07991120219230652, -0.09382118284702301, 0.03374199569225311, -0.06913967430591583], [0.05478549376130104, 0.016383357346057892, 0.03343421593308449, -0.015273059718310833, -0.04640946537256241, -0.07769332826137543, -0.0386340506374836, 0.07142877578735352, -0.004781837575137615, -0.03669288009405136, -0.08800727874040604, 0.0046771070919930935, -0.1202448159456253, 0.010866724886000156, 0.06853567063808441, -0.05785641819238663, 0.07069391757249832, -0.03562861680984497, -0.09254660457372665, -0.11242125928401947, 0.0653052106499672, -0.06501148641109467, 0.03867259994149208, 0.009015504270792007, 0.08546048402786255, -0.09768815338611603, 0.09999196976423264, -0.11454484611749649, -0.07743942737579346, 0.08482178300619125, 0.00039452165947295725, -0.10172279924154282, -0.03333792835474014, -0.08122911304235458, -0.0622648149728775, -0.018244531005620956, 0.09673270583152771, 0.03104102984070778, 0.03606302663683891, -0.0063072810880839825, -6.776787735085155e-22, -0.005022021941840649, 0.07108086347579956, 0.034739479422569275, 0.023401156067848206, 0.05119967833161354, 0.09360553324222565, 0.08844103664159775, 0.03238246217370033, 0.0545925609767437, -0.009531717747449875, 0.0828128308057785, 0.03474423289299011, 0.09171557426452637, 0.01203395426273346, -0.045468658208847046, 0.02095351368188858, 0.04136551916599274, 0.09394719451665878, 0.0662798061966896, 0.06605672836303711, 0.07174046337604523, -0.030981892719864845, 0.10235019028186798, 0.06491446495056152, 0.0991571694612503, 0.11137513071298599, -0.07191356271505356, 0.03745396435260773, 0.11607354879379272, -0.07635805010795593, -0.011377964168787003, -0.06934881955385208, -0.03286200016736984, 0.027584362775087357, 0.06733623147010803, -0.024814806878566742, -0.06822705268859863, 0.06454901397228241, 0.07541202008724213, -0.00173224660102278], [0.06674303114414215, 0.06936954706907272, -0.027837546542286873, -0.009016291238367558, -0.003435951191931963, -0.01766524277627468, -0.05457574874162674, -0.024665653705596924, -0.08419539779424667, 0.06578634679317474, -0.05826912075281143, -0.07079426199197769, 0.0787162333726883, -0.0029257754795253277, 0.06001738831400871, 0.0830058604478836, -0.04388566315174103, 0.060082126408815384, 0.10814828425645828, -0.07866530865430832, -0.025189420208334923, 0.030492303892970085, -0.00908220186829567, 0.008502327837049961, 0.04585358500480652, -0.03049946390092373, 0.013721023686230183, 0.10739939659833908, -0.0552833154797554, -0.06860348582267761, -0.09394708275794983, 0.11180028319358826, -0.10077493637800217, -0.012733107432723045, 0.059436675161123276, -0.07368427515029907, 0.10311286151409149, -0.0503041073679924, 0.01478002592921257, 0.02018752694129944, -1.3412934209019556e-33, 0.047607261687517166, 0.07028483599424362, -0.0803229883313179, 0.08163698762655258, 0.009453227743506432, 0.010526100173592567, -0.10010716319084167, 0.017202548682689667, 0.06907578557729721, -0.12940603494644165, -0.10734873265028, -0.14597345888614655, 0.03159630671143532, -0.05663958191871643, -0.008124290034174919, 0.09146547317504883, -0.04026865214109421, -0.07061589509248734, -0.018431946635246277, -0.10860185325145721, -0.03474413603544235, 0.049341831356287, 0.027821134775877, -0.0722387284040451, 0.11153604090213776, 0.04701393470168114, -0.1019025444984436, 0.07551778107881546, 0.04407228156924248, -0.07876196503639221, -0.07492661476135254, -0.07545708864927292, 0.05894691124558449, 0.01692006178200245, 0.07160508632659912, -0.06590136885643005, 0.049932342022657394, -0.008139830082654953, -0.12494073808193207, -0.035727884620428085], [0.041859351098537445, 0.007305652368813753, -0.024473238736391068, -0.07197558134794235, -0.0750696137547493, 0.08461445569992065, -0.07208896428346634, 0.06392478942871094, -0.05527002736926079, 0.007574695162475109, -0.12519845366477966, -0.04559047892689705, 0.11721239984035492, -0.10603266954421997, 0.04916398972272873, -0.09249238669872284, 0.019988076761364937, -0.10129140317440033, -0.09385298937559128, -0.09183450788259506, -0.04578379914164543, 0.026382477954030037, -0.0826948955655098, 0.025221122428774834, 0.05094658583402634, 0.0827091783285141, 0.08992151916027069, 0.07260988652706146, -0.05443712696433067, -0.008595908991992474, 0.09856786578893661, 0.045459527522325516, -0.03927606716752052, 0.06363597512245178, -0.09701111167669296, 0.09780354797840118, 0.055622488260269165, -0.07269905507564545, -0.08682867139577866, 0.0707644447684288, -5.274852107352076e-22, -0.014360525645315647, -0.05782974883913994, 0.08573827892541885, 0.06480337679386139, -0.015467589721083641, 0.07965631037950516, 0.06342978775501251, 0.006702279672026634, 0.05972984433174133, -0.11118645966053009, -0.05921744182705879, 0.004799135494977236, 0.026751171797513962, -0.0018381044501438737, 0.051108598709106445, 0.030054818838834763, -0.08879267424345016, 0.04941834136843681, 0.012933856807649136, -0.0885675698518753, 0.039955802261829376, -0.003334279637783766, -0.05431343615055084, -0.11122168600559235, 0.08750732988119125, -0.04018070548772812, 0.002420318778604269, 0.0921158567070961, 0.0279898252338171, -0.08163655549287796, -0.10633266717195511, 0.0035158367827534676, -0.040953055024147034, 0.02849559485912323, 0.05439978092908859, -0.028682861477136612, 0.07483439147472382, -0.032840270549058914, -0.0295488890260458, -0.059346284717321396], [0.03319219872355461, -0.0698128268122673, 0.03263747692108154, 0.0007123727700673044, 0.07711866497993469, -0.032472092658281326, -0.033025890588760376, -0.03698597848415375, 0.02432461641728878, 0.043991733342409134, -0.04998397454619408, 0.05166174843907356, 0.06317821890115738, 0.04232539236545563, 0.06005081161856651, 0.055828459560871124, -0.09708485752344131, -0.1511281132698059, -0.01969693787395954, -0.07835079729557037, -0.07970668375492096, 0.04230640083551407, 0.09189140051603317, -0.05056235194206238, -0.004801503382623196, -0.09243794530630112, 0.015441248193383217, 0.06413179636001587, -0.019519556313753128, 0.06162356957793236, -0.10163009166717529, -0.012678702361881733, -0.042481232434511185, 0.10556725412607193, 0.10560749471187592, 0.14184130728244781, 0.09354446083307266, 0.03234574943780899, -0.06111757457256317, -0.06725182384252548, -7.417353254118005e-29, -0.07348980754613876, 0.08476269990205765, 0.022948870435357094, 0.014593428932130337, -0.0916537493467331, 0.07637494057416916, 0.017018962651491165, -0.014108875766396523, 0.05841334909200668, 0.015755482017993927, -0.04510131850838661, 0.02993905544281006, -0.09245225042104721, 0.09735732525587082, 0.12825363874435425, 0.05728648602962494, 0.05413695052266121, -0.09451740980148315, -0.041538894176483154, -0.11155126988887787, -0.05615200474858284, -0.06708469241857529, 0.09880360215902328, 0.056693848222494125, 0.05626435577869415, 0.016423756256699562, 0.08426915854215622, -0.009463871829211712, -0.043008338660001755, 0.026963545009493828, 0.07720700651407242, -0.08805587887763977, 0.10289506614208221, -0.02853701263666153, 0.02575189806520939, -0.11259686201810837, 0.0521368645131588, -0.04957325756549835, -0.08285844326019287, -0.04527666047215462], [-0.012911677360534668, -0.032464683055877686, -0.09387841075658798, 0.06855612248182297, 0.06287696957588196, -0.10978644341230392, 0.011193371377885342, 0.0035885844845324755, 0.014432129450142384, 0.03581259027123451, -0.014298398979008198, 0.04183890298008919, -0.05205173417925835, -0.06123953312635422, 0.09953723102807999, -0.05041823908686638, 0.05126495659351349, 0.10047665238380432, -0.10796500742435455, -0.035273391753435135, 0.0923016294836998, -0.0018029308412224054, 0.02678108587861061, 0.012238908559083939, 0.04264146462082863, -0.08387403935194016, 0.009973886422812939, 0.055580947548151016, -0.0031773955561220646, -0.07911360263824463, 0.03919270262122154, -0.014073900878429413, -0.006045007146894932, 0.0818609893321991, 0.025107942521572113, -0.061611469835042953, -0.07769379764795303, -0.034457992762327194, 0.004981205333024263, -0.007931518368422985, -2.4716378862092595e-24, 0.08916601538658142, 0.04565078020095825, 0.07069047540426254, 0.013621766120195389, 0.001197986421175301, 0.10529174655675888, 0.05097365006804466, 0.033790502697229385, -0.0074007390066981316, 0.05256577953696251, -0.12558528780937195, 0.03264825418591499, -0.1112816333770752, -0.032010920345783234, 0.06180277094244957, -0.0709027424454689, 0.09710165113210678, -0.0652749314904213, 0.12356753647327423, 0.026959219947457314, -0.059714898467063904, 0.05120211839675903, -0.08997619152069092, -0.0528331957757473, -0.08087559044361115, 0.05259613320231438, 0.0062887538224458694, -0.054539602249860764, 0.10113538801670074, 0.005703954957425594, -0.07875403761863708, -0.003857808653265238, -0.02474137768149376, 0.025159267708659172, 0.06578105688095093, 0.016485337167978287, 0.014099099673330784, 0.06012529879808426, -0.04193476587533951, -0.0103842131793499], [-0.024753356352448463, -0.05487881973385811, 0.0049544223584234715, -0.0010343368630856276, -0.09382893890142441, 0.01827227510511875, 0.10099861025810242, 0.05955701693892479, -0.06252625584602356, 0.08988375961780548, -0.07148293405771255, -0.07025834172964096, 0.029189961031079292, 0.09048251062631607, 0.1077791079878807, 0.08224508911371231, -0.0784958228468895, 0.01117004919797182, -0.07192710787057877, -0.005392361432313919, 0.0862390547990799, 0.04828895628452301, -0.13451194763183594, -0.07123755663633347, -0.10880322754383087, 0.04971516877412796, -0.018270861357450485, -0.08695657551288605, -0.059437345713377, 0.014258746057748795, 0.006284674163907766, 0.05428918078541756, -0.033319491893053055, 0.0023621891159564257, -0.03934590891003609, -0.030602047219872475, -0.03967680782079697, 0.09175169467926025, 0.04285962134599686, -0.08374276757240295, 1.0991409776078233e-22, -0.11771255731582642, -0.03600965812802315, 0.00030623262864537537, 0.08848807960748672, -0.00815136544406414, 0.033206865191459656, 0.055495407432317734, -0.05578511208295822, -0.10106367617845535, 0.058095600455999374, 0.053179528564214706, -0.03651173785328865, 0.012910885736346245, -0.11389590054750443, -0.014728794805705547, 0.00928795151412487, 0.0071631791070103645, -0.016931692138314247, 0.03738854080438614, -0.00275161350145936, 0.07909759134054184, -0.11005651205778122, -0.05878335237503052, -0.1513494849205017, -0.1267506331205368, 0.07874739915132523, -0.030641399323940277, -0.1178206354379654, 0.02706543356180191, -0.09392719715833664, -0.011259511113166809, 0.11459086835384369, -0.031178316101431847, 0.029358932748436928, 0.0059526278637349606, -0.09802631288766861, 0.03457837924361229, 0.08277779817581177, -0.034312501549720764, -0.01268811896443367], [0.023501168936491013, -0.015482957474887371, 0.026389464735984802, -0.13882969319820404, 0.08477091789245605, 0.0639767274260521, 0.009472711011767387, 0.018511421978473663, -0.0807306319475174, -0.03380515053868294, -0.006623624823987484, 0.03182397782802582, -0.03204885870218277, 0.020147599279880524, -0.0024892056826502085, 0.08818758279085159, -0.09561613202095032, 0.0261667612940073, 0.0691986009478569, -0.07970450073480606, -0.004301461856812239, 0.06027503311634064, 0.05872777849435806, 0.06278307735919952, 0.0572550892829895, -0.07629522681236267, 0.07842057943344116, -0.01893102005124092, 0.07944305986166, 0.04238930344581604, -0.0015312815085053444, 0.07976539433002472, 0.11718578636646271, 0.10380080342292786, -0.09604659676551819, 0.028998389840126038, -0.0634644478559494, 0.06389464437961578, 0.07238195836544037, -0.05047289654612541, 2.8458644765010654e-32, 0.09333298355340958, 0.0881510078907013, -0.08084128051996231, 0.05397481843829155, -0.029708202928304672, -0.1303623914718628, 0.007416256237775087, 0.045756399631500244, 0.07791867852210999, -0.08444388210773468, -0.08749047666788101, -0.08791317045688629, 0.04937335476279259, -0.08889579772949219, 0.01182430051267147, -0.009470529854297638, 0.029898667708039284, 0.06353307515382767, -0.03734450414776802, 0.04930382966995239, 0.09319480508565903, 0.025099752470850945, -0.07289382070302963, -0.011015373282134533, -0.10186843574047089, -0.07997967302799225, -0.017846811562776566, -0.06662285327911377, 0.08770783245563507, -0.00831321720033884, 0.08135009557008743, -0.06509442627429962, -0.011277720332145691, 0.04431918263435364, -0.04583752900362015, -0.02945617213845253, -0.13312721252441406, 0.05800741910934448, 0.05704561620950699, -0.11295901238918304], [-0.0605987124145031, -0.07751788198947906, -0.05704321339726448, 0.10509578138589859, 0.051860298961400986, 0.0007451352430507541, 0.05976774916052818, 0.05804760009050369, 0.051148246973752975, -0.08898840844631195, 0.025292403995990753, -0.09515975415706635, -0.07586120069026947, -0.0519825704395771, 0.0052126129157841206, -0.1321362555027008, 0.006098386365920305, -0.0025609175208956003, -0.04684014990925789, 0.021423446014523506, 0.0902470275759697, -0.022310560569167137, -0.05782435089349747, -0.09607214480638504, -0.08882147073745728, -0.04988687112927437, -0.10509946942329407, -0.04106287285685539, 0.06981728225946426, 0.04652092978358269, 0.0864870548248291, 0.1037462055683136, -0.06487830728292465, -0.05168011039495468, 0.0012180960038676858, -0.10490357875823975, 0.03930247202515602, -0.024763207882642746, -0.09620954841375351, -0.09786301106214523, -2.864664758054151e-24, 0.06028427556157112, 0.09820017218589783, 0.0798206776380539, -0.04330518841743469, -0.07888614386320114, -0.03918382152915001, -0.10713116824626923, -0.044921908527612686, -0.13792657852172852, 0.06387902796268463, -0.14525412023067474, -0.05647801235318184, 0.061783548444509506, -0.09616989642381668, 0.02595587819814682, 0.06909504532814026, 0.09644515067338943, 0.02370789647102356, -0.020422041416168213, 0.04293571040034294, -0.025609010830521584, -0.013007928617298603, -0.001902445568703115, 0.048608701676130295, 0.057473838329315186, 0.0229807086288929, 0.037975650280714035, -0.016745688393712044, 0.01711834780871868, 0.0758797749876976, 0.013576780445873737, -0.11812032014131546, -0.0016623935662209988, -0.050657596439123154, -0.04287462681531906, 0.03407605364918709, 0.0019721947610378265, 6.31399525445886e-05, -0.07552068680524826, 0.04413622245192528], [0.1008014902472496, -0.019491761922836304, 0.03770923614501953, -0.11472640931606293, 0.07283685356378555, -0.010974242351949215, 0.04021528735756874, 0.036556173115968704, -0.05560120567679405, -0.0007170436438173056, 0.11083722114562988, 0.07337338477373123, -0.10793235152959824, 0.08245991170406342, 0.11510323733091354, -0.00985922385007143, -0.09166058152914047, -0.010328639298677444, -0.03767416998744011, 0.06930475682020187, -0.09977962076663971, 0.0364493764936924, -0.009496151469647884, -0.02582366019487381, 0.07311981171369553, -0.013445775024592876, -0.1170324757695198, -0.07991519570350647, -0.030577480792999268, 0.005247698165476322, 0.006271657068282366, -0.01301026251167059, -0.05038867145776749, 0.03619534149765968, -0.11056749522686005, 0.052867140620946884, -0.02966017834842205, 0.06684780865907669, 0.08066161721944809, 0.06459661573171616, -1.9895063362989168e-28, -0.053420841693878174, 0.09337017685174942, 0.08713527768850327, -0.037389542907476425, 0.02545531652867794, -0.010630041360855103, 0.07327257841825485, 0.055013492703437805, 0.07337282598018646, -0.100716732442379, 0.10880918055772781, 0.02620595693588257, 0.05757765844464302, 0.018278053030371666, 0.11104568839073181, 0.09140313416719437, -0.0008006972493603826, -0.07963741570711136, 0.11532731354236603, -0.018640322610735893, -0.05778109282255173, 0.06798076629638672, 0.0621994324028492, 0.010340339504182339, -0.007647995837032795, -0.018906552344560623, 0.09145736694335938, 0.05030997470021248, 0.06654676049947739, 0.06662695854902267, -0.0644504576921463, 0.020373491570353508, -0.10485515743494034, 0.042961765080690384, -0.12710648775100708, -0.12007590383291245, -0.10426454246044159, 0.04404362291097641, 0.040021102875471115, -0.015425153076648712], [-0.024695850908756256, -0.08160579204559326, -0.03840036317706108, -0.096314936876297, -0.04479612410068512, -0.07630249857902527, -0.029251454398036003, 0.06831438839435577, -0.13392895460128784, 0.044685427099466324, -0.10508275777101517, -0.036469656974077225, 0.039956215769052505, -0.00898611918091774, 0.06223728507757187, -0.03342069312930107, -0.07174325734376907, -0.10788251459598541, -0.03133954107761383, -0.057868972420692444, -0.11167355626821518, -0.08053921163082123, -0.02667938359081745, -0.11380403488874435, -0.09522552043199539, 0.04524049162864685, 0.09138186275959015, -0.045167699456214905, -0.06402362138032913, -0.03667827695608139, 0.0628395527601242, -8.185969818441663e-06, -0.0655408427119255, -0.1299215704202652, -0.06896528601646423, -0.03120255470275879, 0.06763740628957748, -0.036970820277929306, 0.09167156368494034, 0.002628980902954936, -6.029440133983483e-31, -0.1009204164147377, 0.088196761906147, -0.04220680892467499, 0.06845945864915848, -0.03624027967453003, -0.12931369245052338, 